<?xml version="1.0"?>
<opencv_storage>
<cascade>
  <stageType>BOOST</stageType>
  <featureType>HAAR</featureType>
  <height>46</height>
  <width>38</width>
  <stageParams>
    <boostType>GAB</boostType>
    <minHitRate>9.9500000476837158e-01</minHitRate>
    <maxFalseAlarm>5.0000000000000000e-01</maxFalseAlarm>
    <weightTrimRate>9.4999998807907104e-01</weightTrimRate>
    <maxDepth>1</maxDepth>
    <maxWeakCount>100</maxWeakCount></stageParams>
  <featureParams>
    <maxCatCount>0</maxCatCount>
    <featSize>1</featSize>
    <mode>BASIC</mode></featureParams>
  <stageNum>5</stageNum>
  <stages>
    <!-- stage 0 -->
    <_>
      <maxWeakCount>5</maxWeakCount>
      <stageThreshold>-1.2092376947402954e+00</stageThreshold>
      <weakClassifiers>
        <_>
          <internalNodes>
            0 -1 15 1.6090023517608643e-01</internalNodes>
          <leafValues>
            -8.6901766061782837e-01 6.1194032430648804e-01</leafValues></_>
        <_>
          <internalNodes>
            0 -1 14 -1.2684500217437744e-01</internalNodes>
          <leafValues>
            4.5901843905448914e-01 -7.0405232906341553e-01</leafValues></_>
        <_>
          <internalNodes>
            0 -1 8 5.2475720643997192e-02</internalNodes>
          <leafValues>
            -4.9342405796051025e-01 5.6528252363204956e-01</leafValues></_>
        <_>
          <internalNodes>
            0 -1 4 -5.2210618741810322e-04</internalNodes>
          <leafValues>
            3.6402150988578796e-01 -6.7054474353790283e-01</leafValues></_>
        <_>
          <internalNodes>
            0 -1 18 1.5703339129686356e-02</internalNodes>
          <leafValues>
            -4.4126835465431213e-01 4.9323478341102600e-01</leafValues></_></weakClassifiers></_>
    <!-- stage 1 -->
    <_>
      <maxWeakCount>6</maxWeakCount>
      <stageThreshold>-1.5884414911270142e+00</stageThreshold>
      <weakClassifiers>
        <_>
          <internalNodes>
            0 -1 19 -8.2254163920879364e-02</internalNodes>
          <leafValues>
            8.0434781312942505e-01 -8.1578946113586426e-01</leafValues></_>
        <_>
          <internalNodes>
            0 -1 7 1.0533349215984344e-01</internalNodes>
          <leafValues>
            -5.6955873966217041e-01 5.4625684022903442e-01</leafValues></_>
        <_>
          <internalNodes>
            0 -1 1 -6.9948239251971245e-04</internalNodes>
          <leafValues>
            -8.5443633794784546e-01 2.4376416206359863e-01</leafValues></_>
        <_>
          <internalNodes>
            0 -1 5 -2.5803633034229279e-02</internalNodes>
          <leafValues>
            7.9340720176696777e-01 -3.0638355016708374e-01</leafValues></_>
        <_>
          <internalNodes>
            0 -1 25 -6.9453308242373168e-06</internalNodes>
          <leafValues>
            4.0449184179306030e-01 -5.4015785455703735e-01</leafValues></_>
        <_>
          <internalNodes>
            0 -1 0 -3.6603125045076013e-04</internalNodes>
          <leafValues>
            3.9968395233154297e-01 -5.4262250661849976e-01</leafValues></_></weakClassifiers></_>
    <!-- stage 2 -->
    <_>
      <maxWeakCount>7</maxWeakCount>
      <stageThreshold>-1.3500648736953735e+00</stageThreshold>
      <weakClassifiers>
        <_>
          <internalNodes>
            0 -1 17 -9.2281565070152283e-02</internalNodes>
          <leafValues>
            8.1052631139755249e-01 -8.2232892513275146e-01</leafValues></_>
        <_>
          <internalNodes>
            0 -1 6 2.8567892313003540e-01</internalNodes>
          <leafValues>
            -5.0746220350265503e-01 7.1765285730361938e-01</leafValues></_>
        <_>
          <internalNodes>
            0 -1 21 -2.6164256269112229e-04</internalNodes>
          <leafValues>
            5.5856800079345703e-01 -4.1831457614898682e-01</leafValues></_>
        <_>
          <internalNodes>
            0 -1 9 -2.8998194466112182e-05</internalNodes>
          <leafValues>
            5.4770976305007935e-01 -4.3338775634765625e-01</leafValues></_>
        <_>
          <internalNodes>
            0 -1 3 -8.0801494419574738e-02</internalNodes>
          <leafValues>
            8.9032566547393799e-01 -2.5501680374145508e-01</leafValues></_>
        <_>
          <internalNodes>
            0 -1 10 -4.5835797209292650e-04</internalNodes>
          <leafValues>
            -4.4279071688652039e-01 5.8855563402175903e-01</leafValues></_>
        <_>
          <internalNodes>
            0 -1 23 -1.7797805776353925e-04</internalNodes>
          <leafValues>
            5.7490044832229614e-01 -4.2874395847320557e-01</leafValues></_></weakClassifiers></_>
    <!-- stage 3 -->
    <_>
      <maxWeakCount>6</maxWeakCount>
      <stageThreshold>-1.4268574714660645e+00</stageThreshold>
      <weakClassifiers>
        <_>
          <internalNodes>
            0 -1 20 -8.1033736467361450e-02</internalNodes>
          <leafValues>
            1. -8.2639712095260620e-01</leafValues></_>
        <_>
          <internalNodes>
            0 -1 22 6.8488283432088792e-05</internalNodes>
          <leafValues>
            -6.2806880474090576e-01 8.0437994003295898e-01</leafValues></_>
        <_>
          <internalNodes>
            0 -1 11 -8.3185564726591110e-03</internalNodes>
          <leafValues>
            -8.0265116691589355e-01 4.5217990875244141e-01</leafValues></_>
        <_>
          <internalNodes>
            0 -1 24 4.6854152060404886e-06</internalNodes>
          <leafValues>
            -6.1390155553817749e-01 7.5030642747879028e-01</leafValues></_>
        <_>
          <internalNodes>
            0 -1 13 -2.5155025068670511e-03</internalNodes>
          <leafValues>
            1. -4.0308594703674316e-01</leafValues></_>
        <_>
          <internalNodes>
            0 -1 2 5.9491395950317383e-04</internalNodes>
          <leafValues>
            5.9241604804992676e-01 -6.9254726171493530e-01</leafValues></_></weakClassifiers></_>
    <!-- stage 4 -->
    <_>
      <maxWeakCount>2</maxWeakCount>
      <stageThreshold>2.3166023194789886e-02</stageThreshold>
      <weakClassifiers>
        <_>
          <internalNodes>
            0 -1 12 -2.1738812327384949e-02</internalNodes>
          <leafValues>
            -9.7683399915695190e-01 1.</leafValues></_>
        <_>
          <internalNodes>
            0 -1 16 -9.6234558150172234e-03</internalNodes>
          <leafValues>
            -9.4313961267471313e-01 1.</leafValues></_></weakClassifiers></_></stages>
  <features>
    <_>
      <rects>
        <_>
          0 23 6 12 -1.</_>
        <_>
          3 23 3 12 2.</_></rects>
      <tilted>0</tilted></_>
    <_>
      <rects>
        <_>
          1 3 6 6 -1.</_>
        <_>
          4 3 3 6 2.</_></rects>
      <tilted>0</tilted></_>
    <_>
      <rects>
        <_>
          1 5 4 12 -1.</_>
        <_>
          3 5 2 12 2.</_></rects>
      <tilted>0</tilted></_>
    <_>
      <rects>
        <_>
          1 24 37 12 -1.</_>
        <_>
          1 30 37 6 2.</_></rects>
      <tilted>0</tilted></_>
    <_>
      <rects>
        <_>
          1 34 12 7 -1.</_>
        <_>
          7 34 6 7 2.</_></rects>
      <tilted>0</tilted></_>
    <_>
      <rects>
        <_>
          2 25 20 8 -1.</_>
        <_>
          2 29 20 4 2.</_></rects>
      <tilted>0</tilted></_>
    <_>
      <rects>
        <_>
          4 0 28 36 -1.</_>
        <_>
          4 12 28 12 3.</_></rects>
      <tilted>0</tilted></_>
    <_>
      <rects>
        <_>
          4 6 33 13 -1.</_>
        <_>
          15 6 11 13 3.</_></rects>
      <tilted>0</tilted></_>
    <_>
      <rects>
        <_>
          6 7 24 23 -1.</_>
        <_>
          14 7 8 23 3.</_></rects>
      <tilted>0</tilted></_>
    <_>
      <rects>
        <_>
          6 25 2 2 -1.</_>
        <_>
          7 25 1 2 2.</_></rects>
      <tilted>0</tilted></_>
    <_>
      <rects>
        <_>
          7 29 22 6 -1.</_>
        <_>
          7 32 22 3 2.</_></rects>
      <tilted>0</tilted></_>
    <_>
      <rects>
        <_>
          7 41 24 5 -1.</_>
        <_>
          15 41 8 5 3.</_></rects>
      <tilted>0</tilted></_>
    <_>
      <rects>
        <_>
          9 7 7 24 -1.</_>
        <_>
          9 15 7 8 3.</_></rects>
      <tilted>0</tilted></_>
    <_>
      <rects>
        <_>
          12 2 26 6 -1.</_>
        <_>
          12 4 26 2 3.</_></rects>
      <tilted>0</tilted></_>
    <_>
      <rects>
        <_>
          12 7 13 28 -1.</_>
        <_>
          12 21 13 14 2.</_></rects>
      <tilted>0</tilted></_>
    <_>
      <rects>
        <_>
          13 1 13 33 -1.</_>
        <_>
          13 12 13 11 3.</_></rects>
      <tilted>0</tilted></_>
    <_>
      <rects>
        <_>
          13 19 12 8 -1.</_>
        <_>
          13 19 6 4 2.</_>
        <_>
          19 23 6 4 2.</_></rects>
      <tilted>0</tilted></_>
    <_>
      <rects>
        <_>
          16 14 8 22 -1.</_>
        <_>
          16 25 8 11 2.</_></rects>
      <tilted>0</tilted></_>
    <_>
      <rects>
        <_>
          17 3 8 18 -1.</_>
        <_>
          17 9 8 6 3.</_></rects>
      <tilted>0</tilted></_>
    <_>
      <rects>
        <_>
          17 13 6 24 -1.</_>
        <_>
          17 25 6 12 2.</_></rects>
      <tilted>0</tilted></_>
    <_>
      <rects>
        <_>
          17 14 7 22 -1.</_>
        <_>
          17 25 7 11 2.</_></rects>
      <tilted>0</tilted></_>
    <_>
      <rects>
        <_>
          19 15 3 2 -1.</_>
        <_>
          19 16 3 1 2.</_></rects>
      <tilted>0</tilted></_>
    <_>
      <rects>
        <_>
          19 18 18 1 -1.</_>
        <_>
          25 18 6 1 3.</_></rects>
      <tilted>0</tilted></_>
    <_>
      <rects>
        <_>
          19 42 12 4 -1.</_>
        <_>
          19 42 6 2 2.</_>
        <_>
          25 44 6 2 2.</_></rects>
      <tilted>0</tilted></_>
    <_>
      <rects>
        <_>
          25 38 6 1 -1.</_>
        <_>
          28 38 3 1 2.</_></rects>
      <tilted>0</tilted></_>
    <_>
      <rects>
        <_>
          29 17 6 9 -1.</_>
        <_>
          29 20 6 3 3.</_></rects>
      <tilted>0</tilted></_></features></cascade>
</opencv_storage>
