<?xml version="1.0"?>
<opencv_storage>
<cascade>
  <stageType>BOOST</stageType>
  <featureType>HAAR</featureType>
  <height>46</height>
  <width>38</width>
  <stageParams>
    <boostType>GAB</boostType>
    <minHitRate>9.9500000476837158e-01</minHitRate>
    <maxFalseAlarm>5.0000000000000000e-01</maxFalseAlarm>
    <weightTrimRate>9.4999998807907104e-01</weightTrimRate>
    <maxDepth>1</maxDepth>
    <maxWeakCount>100</maxWeakCount></stageParams>
  <featureParams>
    <maxCatCount>0</maxCatCount>
    <featSize>1</featSize>
    <mode>BASIC</mode></featureParams>
  <stageNum>6</stageNum>
  <stages>
    <!-- stage 0 -->
    <_>
      <maxWeakCount>6</maxWeakCount>
      <stageThreshold>-1.7557154893875122e+00</stageThreshold>
      <weakClassifiers>
        <_>
          <internalNodes>
            0 -1 5 -2.5632906705141068e-02</internalNodes>
          <leafValues>
            2.5506073236465454e-01 -9.0756303071975708e-01</leafValues></_>
        <_>
          <internalNodes>
            0 -1 25 2.8002724051475525e-02</internalNodes>
          <leafValues>
            -7.4599158763885498e-01 5.8496475219726563e-01</leafValues></_>
        <_>
          <internalNodes>
            0 -1 19 1.0804268531501293e-03</internalNodes>
          <leafValues>
            -8.3369612693786621e-01 3.6284038424491882e-01</leafValues></_>
        <_>
          <internalNodes>
            0 -1 9 -8.2633070647716522e-02</internalNodes>
          <leafValues>
            5.4811102151870728e-01 -5.6194448471069336e-01</leafValues></_>
        <_>
          <internalNodes>
            0 -1 17 -2.5639690458774567e-02</internalNodes>
          <leafValues>
            5.6314319372177124e-01 -4.5064824819564819e-01</leafValues></_>
        <_>
          <internalNodes>
            0 -1 22 2.2104308009147644e-03</internalNodes>
          <leafValues>
            -3.9000478386878967e-01 6.3407248258590698e-01</leafValues></_></weakClassifiers></_>
    <!-- stage 1 -->
    <_>
      <maxWeakCount>6</maxWeakCount>
      <stageThreshold>-1.7069748640060425e+00</stageThreshold>
      <weakClassifiers>
        <_>
          <internalNodes>
            0 -1 2 -6.0616437345743179e-02</internalNodes>
          <leafValues>
            1.2663754820823669e-01 -8.5567009449005127e-01</leafValues></_>
        <_>
          <internalNodes>
            0 -1 27 6.2832729890942574e-03</internalNodes>
          <leafValues>
            -6.6761767864227295e-01 4.4708383083343506e-01</leafValues></_>
        <_>
          <internalNodes>
            0 -1 6 -2.1653738804161549e-03</internalNodes>
          <leafValues>
            2.5586718320846558e-01 -7.8877675533294678e-01</leafValues></_>
        <_>
          <internalNodes>
            0 -1 24 -5.1295454613864422e-04</internalNodes>
          <leafValues>
            -8.7443584203720093e-01 2.1234126389026642e-01</leafValues></_>
        <_>
          <internalNodes>
            0 -1 20 4.2563187889754772e-04</internalNodes>
          <leafValues>
            2.2262668609619141e-01 -8.3275514841079712e-01</leafValues></_>
        <_>
          <internalNodes>
            0 -1 0 -4.8061177134513855e-02</internalNodes>
          <leafValues>
            -8.9953160285949707e-01 2.1225489675998688e-01</leafValues></_></weakClassifiers></_>
    <!-- stage 2 -->
    <_>
      <maxWeakCount>7</maxWeakCount>
      <stageThreshold>-1.7649194002151489e+00</stageThreshold>
      <weakClassifiers>
        <_>
          <internalNodes>
            0 -1 16 1.6667589545249939e-02</internalNodes>
          <leafValues>
            -7.8603810071945190e-01 6.8750000000000000e-01</leafValues></_>
        <_>
          <internalNodes>
            0 -1 4 -5.3048752248287201e-02</internalNodes>
          <leafValues>
            8.7540489435195923e-01 -5.5176192522048950e-01</leafValues></_>
        <_>
          <internalNodes>
            0 -1 30 1.1169982608407736e-03</internalNodes>
          <leafValues>
            -5.5949282646179199e-01 5.2485716342926025e-01</leafValues></_>
        <_>
          <internalNodes>
            0 -1 28 3.8019046187400818e-02</internalNodes>
          <leafValues>
            2.4217177927494049e-01 -1.</leafValues></_>
        <_>
          <internalNodes>
            0 -1 11 -2.2639792412519455e-02</internalNodes>
          <leafValues>
            5.2957063913345337e-01 -4.3560785055160522e-01</leafValues></_>
        <_>
          <internalNodes>
            0 -1 23 1.4674207195639610e-03</internalNodes>
          <leafValues>
            -3.1572887301445007e-01 6.6282719373703003e-01</leafValues></_>
        <_>
          <internalNodes>
            0 -1 10 5.6422995403409004e-03</internalNodes>
          <leafValues>
            -3.3701765537261963e-01 7.0952695608139038e-01</leafValues></_></weakClassifiers></_>
    <!-- stage 3 -->
    <_>
      <maxWeakCount>5</maxWeakCount>
      <stageThreshold>-1.7279441356658936e+00</stageThreshold>
      <weakClassifiers>
        <_>
          <internalNodes>
            0 -1 26 4.4427150860428810e-03</internalNodes>
          <leafValues>
            -7.9372197389602661e-01 1.</leafValues></_>
        <_>
          <internalNodes>
            0 -1 29 7.1276999078691006e-03</internalNodes>
          <leafValues>
            -5.4681760072708130e-01 8.9616101980209351e-01</leafValues></_>
        <_>
          <internalNodes>
            0 -1 13 -9.4164488837122917e-03</internalNodes>
          <leafValues>
            -8.8230013847351074e-01 4.6066236495971680e-01</leafValues></_>
        <_>
          <internalNodes>
            0 -1 14 -2.9126618755981326e-04</internalNodes>
          <leafValues>
            7.7576518058776855e-01 -4.7625127434730530e-01</leafValues></_>
        <_>
          <internalNodes>
            0 -1 8 3.6142349243164063e-02</internalNodes>
          <leafValues>
            -3.7181571125984192e-01 7.6569712162017822e-01</leafValues></_></weakClassifiers></_>
    <!-- stage 4 -->
    <_>
      <maxWeakCount>4</maxWeakCount>
      <stageThreshold>-1.6320652961730957e+00</stageThreshold>
      <weakClassifiers>
        <_>
          <internalNodes>
            0 -1 18 -1.3670162297785282e-02</internalNodes>
          <leafValues>
            1. -8.6393290758132935e-01</leafValues></_>
        <_>
          <internalNodes>
            0 -1 12 4.6948883682489395e-03</internalNodes>
          <leafValues>
            -7.3010724782943726e-01 1.</leafValues></_>
        <_>
          <internalNodes>
            0 -1 15 -2.9686064226552844e-04</internalNodes>
          <leafValues>
            8.1776189804077148e-01 -5.8661597967147827e-01</leafValues></_>
        <_>
          <internalNodes>
            0 -1 7 -3.7334306398406625e-05</internalNodes>
          <leafValues>
            5.4859089851379395e-01 -7.9400849342346191e-01</leafValues></_></weakClassifiers></_>
    <!-- stage 5 -->
    <_>
      <maxWeakCount>3</maxWeakCount>
      <stageThreshold>-6.6186583042144775e-01</stageThreshold>
      <weakClassifiers>
        <_>
          <internalNodes>
            0 -1 21 -1.1312104761600494e-03</internalNodes>
          <leafValues>
            1. -9.0476191043853760e-01</leafValues></_>
        <_>
          <internalNodes>
            0 -1 1 -1.1939525393245276e-05</internalNodes>
          <leafValues>
            1. -7.5710391998291016e-01</leafValues></_>
        <_>
          <internalNodes>
            0 -1 3 9.4061216805130243e-04</internalNodes>
          <leafValues>
            -7.1295881271362305e-01 1.</leafValues></_></weakClassifiers></_></stages>
  <features>
    <_>
      <rects>
        <_>
          0 0 30 16 -1.</_>
        <_>
          15 0 15 16 2.</_></rects>
      <tilted>0</tilted></_>
    <_>
      <rects>
        <_>
          0 5 30 1 -1.</_>
        <_>
          10 5 10 1 3.</_></rects>
      <tilted>0</tilted></_>
    <_>
      <rects>
        <_>
          0 8 14 32 -1.</_>
        <_>
          0 8 7 16 2.</_>
        <_>
          7 24 7 16 2.</_></rects>
      <tilted>0</tilted></_>
    <_>
      <rects>
        <_>
          0 14 9 12 -1.</_>
        <_>
          0 18 9 4 3.</_></rects>
      <tilted>0</tilted></_>
    <_>
      <rects>
        <_>
          0 19 10 16 -1.</_>
        <_>
          5 19 5 16 2.</_></rects>
      <tilted>0</tilted></_>
    <_>
      <rects>
        <_>
          0 27 14 17 -1.</_>
        <_>
          7 27 7 17 2.</_></rects>
      <tilted>0</tilted></_>
    <_>
      <rects>
        <_>
          0 34 12 9 -1.</_>
        <_>
          6 34 6 9 2.</_></rects>
      <tilted>0</tilted></_>
    <_>
      <rects>
        <_>
          1 29 2 16 -1.</_>
        <_>
          2 29 1 16 2.</_></rects>
      <tilted>0</tilted></_>
    <_>
      <rects>
        <_>
          5 5 5 33 -1.</_>
        <_>
          5 16 5 11 3.</_></rects>
      <tilted>0</tilted></_>
    <_>
      <rects>
        <_>
          5 20 25 18 -1.</_>
        <_>
          5 29 25 9 2.</_></rects>
      <tilted>0</tilted></_>
    <_>
      <rects>
        <_>
          6 8 6 17 -1.</_>
        <_>
          9 8 3 17 2.</_></rects>
      <tilted>0</tilted></_>
    <_>
      <rects>
        <_>
          6 15 12 29 -1.</_>
        <_>
          10 15 4 29 3.</_></rects>
      <tilted>0</tilted></_>
    <_>
      <rects>
        <_>
          8 0 2 26 -1.</_>
        <_>
          8 13 2 13 2.</_></rects>
      <tilted>0</tilted></_>
    <_>
      <rects>
        <_>
          8 17 22 24 -1.</_>
        <_>
          19 17 11 24 2.</_></rects>
      <tilted>0</tilted></_>
    <_>
      <rects>
        <_>
          9 31 2 5 -1.</_>
        <_>
          10 31 1 5 2.</_></rects>
      <tilted>0</tilted></_>
    <_>
      <rects>
        <_>
          9 31 2 6 -1.</_>
        <_>
          10 31 1 6 2.</_></rects>
      <tilted>0</tilted></_>
    <_>
      <rects>
        <_>
          10 0 1 36 -1.</_>
        <_>
          10 12 1 12 3.</_></rects>
      <tilted>0</tilted></_>
    <_>
      <rects>
        <_>
          10 31 28 14 -1.</_>
        <_>
          10 31 14 7 2.</_>
        <_>
          24 38 14 7 2.</_></rects>
      <tilted>0</tilted></_>
    <_>
      <rects>
        <_>
          17 26 21 9 -1.</_>
        <_>
          24 26 7 9 3.</_></rects>
      <tilted>0</tilted></_>
    <_>
      <rects>
        <_>
          17 40 12 4 -1.</_>
        <_>
          17 42 12 2 2.</_></rects>
      <tilted>0</tilted></_>
    <_>
      <rects>
        <_>
          18 39 20 6 -1.</_>
        <_>
          18 39 10 3 2.</_>
        <_>
          28 42 10 3 2.</_></rects>
      <tilted>0</tilted></_>
    <_>
      <rects>
        <_>
          19 21 6 6 -1.</_>
        <_>
          19 24 6 3 2.</_></rects>
      <tilted>0</tilted></_>
    <_>
      <rects>
        <_>
          21 8 6 18 -1.</_>
        <_>
          23 8 2 18 3.</_></rects>
      <tilted>0</tilted></_>
    <_>
      <rects>
        <_>
          22 13 5 6 -1.</_>
        <_>
          22 15 5 2 3.</_></rects>
      <tilted>0</tilted></_>
    <_>
      <rects>
        <_>
          25 40 12 6 -1.</_>
        <_>
          25 43 12 3 2.</_></rects>
      <tilted>0</tilted></_>
    <_>
      <rects>
        <_>
          26 10 12 26 -1.</_>
        <_>
          26 10 6 13 2.</_>
        <_>
          32 23 6 13 2.</_></rects>
      <tilted>0</tilted></_>
    <_>
      <rects>
        <_>
          29 20 6 7 -1.</_>
        <_>
          31 20 2 7 3.</_></rects>
      <tilted>0</tilted></_>
    <_>
      <rects>
        <_>
          29 25 6 10 -1.</_>
        <_>
          32 25 3 10 2.</_></rects>
      <tilted>0</tilted></_>
    <_>
      <rects>
        <_>
          31 0 7 44 -1.</_>
        <_>
          31 22 7 22 2.</_></rects>
      <tilted>0</tilted></_>
    <_>
      <rects>
        <_>
          33 14 2 24 -1.</_>
        <_>
          33 26 2 12 2.</_></rects>
      <tilted>0</tilted></_>
    <_>
      <rects>
        <_>
          37 5 1 32 -1.</_>
        <_>
          37 21 1 16 2.</_></rects>
      <tilted>0</tilted></_></features></cascade>
</opencv_storage>
