<?xml version="1.0"?>
<opencv_storage>
<cascade>
  <stageType>BOOST</stageType>
  <featureType>HAAR</featureType>
  <height>50</height>
  <width>50</width>
  <stageParams>
    <boostType>GAB</boostType>
    <minHitRate>9.9500000476837158e-01</minHitRate>
    <maxFalseAlarm>5.0000000000000000e-01</maxFalseAlarm>
    <weightTrimRate>9.4999998807907104e-01</weightTrimRate>
    <maxDepth>1</maxDepth>
    <maxWeakCount>100</maxWeakCount></stageParams>
  <featureParams>
    <maxCatCount>0</maxCatCount>
    <featSize>1</featSize>
    <mode>BASIC</mode></featureParams>
  <stageNum>20</stageNum>
  <stages>
    <!-- stage 0 -->
    <_>
      <maxWeakCount>2</maxWeakCount>
      <stageThreshold>-2.0625662803649902e-01</stageThreshold>
      <weakClassifiers>
        <_>
          <internalNodes>
            0 -1 31 1.6554558277130127e-01</internalNodes>
          <leafValues>
            -8.8260871171951294e-01 8.1467181444168091e-01</leafValues></_>
        <_>
          <internalNodes>
            0 -1 47 1.0235287249088287e-01</internalNodes>
          <leafValues>
            -9.3631130456924438e-01 6.7635208368301392e-01</leafValues></_></weakClassifiers></_>
    <!-- stage 1 -->
    <_>
      <maxWeakCount>3</maxWeakCount>
      <stageThreshold>-8.9409011602401733e-01</stageThreshold>
      <weakClassifiers>
        <_>
          <internalNodes>
            0 -1 15 1.6616851091384888e-01</internalNodes>
          <leafValues>
            -8.0383795499801636e-01 7.2799998521804810e-01</leafValues></_>
        <_>
          <internalNodes>
            0 -1 59 -1.4984866976737976e-01</internalNodes>
          <leafValues>
            6.2118417024612427e-01 -6.9074118137359619e-01</leafValues></_>
        <_>
          <internalNodes>
            0 -1 43 -9.0590462088584900e-02</internalNodes>
          <leafValues>
            6.0048902034759521e-01 -5.6133592128753662e-01</leafValues></_></weakClassifiers></_>
    <!-- stage 2 -->
    <_>
      <maxWeakCount>5</maxWeakCount>
      <stageThreshold>-9.7526806592941284e-01</stageThreshold>
      <weakClassifiers>
        <_>
          <internalNodes>
            0 -1 78 -9.8024822771549225e-02</internalNodes>
          <leafValues>
            6.7634856700897217e-01 -7.4895399808883667e-01</leafValues></_>
        <_>
          <internalNodes>
            0 -1 25 1.0201422870159149e-01</internalNodes>
          <leafValues>
            -5.8320999145507813e-01 5.4798614978790283e-01</leafValues></_>
        <_>
          <internalNodes>
            0 -1 3 1.0626543313264847e-01</internalNodes>
          <leafValues>
            -4.6279028058052063e-01 7.1120172739028931e-01</leafValues></_>
        <_>
          <internalNodes>
            0 -1 18 -1.7158061265945435e-01</internalNodes>
          <leafValues>
            5.0610047578811646e-01 -6.9677782058715820e-01</leafValues></_>
        <_>
          <internalNodes>
            0 -1 81 1.8480008002370596e-03</internalNodes>
          <leafValues>
            3.8526788353919983e-01 -9.0498960018157959e-01</leafValues></_></weakClassifiers></_>
    <!-- stage 3 -->
    <_>
      <maxWeakCount>5</maxWeakCount>
      <stageThreshold>-9.2276650667190552e-01</stageThreshold>
      <weakClassifiers>
        <_>
          <internalNodes>
            0 -1 32 3.0457425117492676e-01</internalNodes>
          <leafValues>
            -7.0143151283264160e-01 6.4347827434539795e-01</leafValues></_>
        <_>
          <internalNodes>
            0 -1 80 -3.4112315624952316e-03</internalNodes>
          <leafValues>
            -8.6242365837097168e-01 2.6394721865653992e-01</leafValues></_>
        <_>
          <internalNodes>
            0 -1 2 -4.8580691218376160e-03</internalNodes>
          <leafValues>
            -9.5075291395187378e-01 2.1613819897174835e-01</leafValues></_>
        <_>
          <internalNodes>
            0 -1 33 -2.5093541480600834e-03</internalNodes>
          <leafValues>
            -9.2184543609619141e-01 2.6895481348037720e-01</leafValues></_>
        <_>
          <internalNodes>
            0 -1 88 -4.4297776184976101e-03</internalNodes>
          <leafValues>
            -9.2918115854263306e-01 2.2042499482631683e-01</leafValues></_></weakClassifiers></_>
    <!-- stage 4 -->
    <_>
      <maxWeakCount>5</maxWeakCount>
      <stageThreshold>-8.7036275863647461e-01</stageThreshold>
      <weakClassifiers>
        <_>
          <internalNodes>
            0 -1 76 -1.1086311936378479e-01</internalNodes>
          <leafValues>
            5.0000000000000000e-01 -6.8736618757247925e-01</leafValues></_>
        <_>
          <internalNodes>
            0 -1 99 8.0790254287421703e-05</internalNodes>
          <leafValues>
            -3.6564865708351135e-01 8.7049204111099243e-01</leafValues></_>
        <_>
          <internalNodes>
            0 -1 96 3.0158171430230141e-03</internalNodes>
          <leafValues>
            3.5216575860977173e-01 -8.6309272050857544e-01</leafValues></_>
        <_>
          <internalNodes>
            0 -1 92 -9.9434778094291687e-03</internalNodes>
          <leafValues>
            -9.2543238401412964e-01 2.9429072141647339e-01</leafValues></_>
        <_>
          <internalNodes>
            0 -1 34 1.0934289311990142e-03</internalNodes>
          <leafValues>
            -4.3171977996826172e-01 7.5591874122619629e-01</leafValues></_></weakClassifiers></_>
    <!-- stage 5 -->
    <_>
      <maxWeakCount>4</maxWeakCount>
      <stageThreshold>-1.1081006526947021e+00</stageThreshold>
      <weakClassifiers>
        <_>
          <internalNodes>
            0 -1 35 5.2992857992649078e-02</internalNodes>
          <leafValues>
            -6.8260872364044189e-01 4.5945945382118225e-01</leafValues></_>
        <_>
          <internalNodes>
            0 -1 29 8.3044335246086121e-02</internalNodes>
          <leafValues>
            2.3024544119834900e-01 -9.9112361669540405e-01</leafValues></_>
        <_>
          <internalNodes>
            0 -1 89 -5.8665627148002386e-04</internalNodes>
          <leafValues>
            -7.5553506612777710e-01 2.7097168564796448e-01</leafValues></_>
        <_>
          <internalNodes>
            0 -1 98 -3.4889129456132650e-03</internalNodes>
          <leafValues>
            -9.2670911550521851e-01 2.4554553627967834e-01</leafValues></_></weakClassifiers></_>
    <!-- stage 6 -->
    <_>
      <maxWeakCount>6</maxWeakCount>
      <stageThreshold>-9.0101307630538940e-01</stageThreshold>
      <weakClassifiers>
        <_>
          <internalNodes>
            0 -1 68 7.8582100104540586e-04</internalNodes>
          <leafValues>
            -5.2478635311126709e-01 8.3582091331481934e-01</leafValues></_>
        <_>
          <internalNodes>
            0 -1 62 2.5984037667512894e-02</internalNodes>
          <leafValues>
            -4.1197171807289124e-01 7.2235661745071411e-01</leafValues></_>
        <_>
          <internalNodes>
            0 -1 95 -3.3333166502416134e-03</internalNodes>
          <leafValues>
            -8.3767390251159668e-01 3.8166540861129761e-01</leafValues></_>
        <_>
          <internalNodes>
            0 -1 71 4.6312581980600953e-04</internalNodes>
          <leafValues>
            -3.9372161030769348e-01 8.3544880151748657e-01</leafValues></_>
        <_>
          <internalNodes>
            0 -1 72 3.9539474528282881e-04</internalNodes>
          <leafValues>
            -2.7514967322349548e-01 8.6008459329605103e-01</leafValues></_>
        <_>
          <internalNodes>
            0 -1 55 2.6096021756529808e-03</internalNodes>
          <leafValues>
            3.8194221258163452e-01 -8.1228345632553101e-01</leafValues></_></weakClassifiers></_>
    <!-- stage 7 -->
    <_>
      <maxWeakCount>3</maxWeakCount>
      <stageThreshold>-8.6992031335830688e-01</stageThreshold>
      <weakClassifiers>
        <_>
          <internalNodes>
            0 -1 91 3.5064393887296319e-04</internalNodes>
          <leafValues>
            -7.6497697830200195e-01 4.8070174455642700e-01</leafValues></_>
        <_>
          <internalNodes>
            0 -1 65 2.1915329620242119e-02</internalNodes>
          <leafValues>
            -5.3695333003997803e-01 7.8980726003646851e-01</leafValues></_>
        <_>
          <internalNodes>
            0 -1 61 9.9902898073196411e-02</internalNodes>
          <leafValues>
            -8.1366872787475586e-01 4.7398489713668823e-01</leafValues></_></weakClassifiers></_>
    <!-- stage 8 -->
    <_>
      <maxWeakCount>3</maxWeakCount>
      <stageThreshold>-5.6510746479034424e-01</stageThreshold>
      <weakClassifiers>
        <_>
          <internalNodes>
            0 -1 85 -3.4627679735422134e-02</internalNodes>
          <leafValues>
            6.8586385250091553e-01 -6.1742424964904785e-01</leafValues></_>
        <_>
          <internalNodes>
            0 -1 64 2.9156945645809174e-02</internalNodes>
          <leafValues>
            -3.3025625348091125e-01 7.8144359588623047e-01</leafValues></_>
        <_>
          <internalNodes>
            0 -1 19 1.0276529937982559e-03</internalNodes>
          <leafValues>
            3.8257303833961487e-01 -6.9661217927932739e-01</leafValues></_></weakClassifiers></_>
    <!-- stage 9 -->
    <_>
      <maxWeakCount>5</maxWeakCount>
      <stageThreshold>-8.4669268131256104e-01</stageThreshold>
      <weakClassifiers>
        <_>
          <internalNodes>
            0 -1 35 4.8213422298431396e-02</internalNodes>
          <leafValues>
            -7.3553717136383057e-01 6.8510639667510986e-01</leafValues></_>
        <_>
          <internalNodes>
            0 -1 69 -2.6756640523672104e-02</internalNodes>
          <leafValues>
            8.0215615034103394e-01 -3.1786012649536133e-01</leafValues></_>
        <_>
          <internalNodes>
            0 -1 6 1.7904287576675415e-01</internalNodes>
          <leafValues>
            -5.3533303737640381e-01 5.0065857172012329e-01</leafValues></_>
        <_>
          <internalNodes>
            0 -1 48 2.3594594094902277e-03</internalNodes>
          <leafValues>
            3.4713363647460938e-01 -7.6997101306915283e-01</leafValues></_>
        <_>
          <internalNodes>
            0 -1 90 5.9105036780238152e-04</internalNodes>
          <leafValues>
            -5.3944957256317139e-01 4.7601708769798279e-01</leafValues></_></weakClassifiers></_>
    <!-- stage 10 -->
    <_>
      <maxWeakCount>4</maxWeakCount>
      <stageThreshold>-8.5342717170715332e-01</stageThreshold>
      <weakClassifiers>
        <_>
          <internalNodes>
            0 -1 82 -6.2797904014587402e-02</internalNodes>
          <leafValues>
            5.0833332538604736e-01 -6.6179537773132324e-01</leafValues></_>
        <_>
          <internalNodes>
            0 -1 44 -6.1738276854157448e-03</internalNodes>
          <leafValues>
            -9.2661517858505249e-01 2.0101474225521088e-01</leafValues></_>
        <_>
          <internalNodes>
            0 -1 58 1.3499373570084572e-02</internalNodes>
          <leafValues>
            -4.3657615780830383e-01 4.2914035916328430e-01</leafValues></_>
        <_>
          <internalNodes>
            0 -1 52 1.9027388188987970e-03</internalNodes>
          <leafValues>
            2.6257646083831787e-01 -8.2178688049316406e-01</leafValues></_></weakClassifiers></_>
    <!-- stage 11 -->
    <_>
      <maxWeakCount>6</maxWeakCount>
      <stageThreshold>-1.2275507450103760e+00</stageThreshold>
      <weakClassifiers>
        <_>
          <internalNodes>
            0 -1 74 -7.3965713381767273e-02</internalNodes>
          <leafValues>
            3.8762214779853821e-01 -7.6213592290878296e-01</leafValues></_>
        <_>
          <internalNodes>
            0 -1 53 7.0227868854999542e-04</internalNodes>
          <leafValues>
            -4.5597320795059204e-01 4.3901684880256653e-01</leafValues></_>
        <_>
          <internalNodes>
            0 -1 16 1.3810934126377106e-01</internalNodes>
          <leafValues>
            -6.0220050811767578e-01 3.4706950187683105e-01</leafValues></_>
        <_>
          <internalNodes>
            0 -1 4 1.9460364710539579e-03</internalNodes>
          <leafValues>
            4.6663776040077209e-01 -5.3894895315170288e-01</leafValues></_>
        <_>
          <internalNodes>
            0 -1 50 6.5443841740489006e-03</internalNodes>
          <leafValues>
            -3.6559626460075378e-01 6.2597250938415527e-01</leafValues></_>
        <_>
          <internalNodes>
            0 -1 67 1.0413180105388165e-02</internalNodes>
          <leafValues>
            -4.4092324376106262e-01 4.9171742796897888e-01</leafValues></_></weakClassifiers></_>
    <!-- stage 12 -->
    <_>
      <maxWeakCount>7</maxWeakCount>
      <stageThreshold>-9.6658539772033691e-01</stageThreshold>
      <weakClassifiers>
        <_>
          <internalNodes>
            0 -1 83 -2.4374265223741531e-02</internalNodes>
          <leafValues>
            7.4242424964904785e-01 -4.9914821982383728e-01</leafValues></_>
        <_>
          <internalNodes>
            0 -1 22 -2.2387396544218063e-02</internalNodes>
          <leafValues>
            -8.1188601255416870e-01 2.3551216721534729e-01</leafValues></_>
        <_>
          <internalNodes>
            0 -1 21 -1.0476686060428619e-02</internalNodes>
          <leafValues>
            5.6648308038711548e-01 -3.6145061254501343e-01</leafValues></_>
        <_>
          <internalNodes>
            0 -1 36 5.8810405433177948e-02</internalNodes>
          <leafValues>
            -3.5528779029846191e-01 6.4717417955398560e-01</leafValues></_>
        <_>
          <internalNodes>
            0 -1 28 2.7237855829298496e-04</internalNodes>
          <leafValues>
            4.0170574188232422e-01 -6.1138099431991577e-01</leafValues></_>
        <_>
          <internalNodes>
            0 -1 49 2.1794445812702179e-02</internalNodes>
          <leafValues>
            -3.7236827611923218e-01 4.8357570171356201e-01</leafValues></_>
        <_>
          <internalNodes>
            0 -1 97 -1.9880046602338552e-03</internalNodes>
          <leafValues>
            -7.5202792882919312e-01 2.3205217719078064e-01</leafValues></_></weakClassifiers></_>
    <!-- stage 13 -->
    <_>
      <maxWeakCount>8</maxWeakCount>
      <stageThreshold>-1.0425477027893066e+00</stageThreshold>
      <weakClassifiers>
        <_>
          <internalNodes>
            0 -1 12 4.2423516511917114e-02</internalNodes>
          <leafValues>
            -5.0174218416213989e-01 6.4137929677963257e-01</leafValues></_>
        <_>
          <internalNodes>
            0 -1 57 5.5491076782345772e-03</internalNodes>
          <leafValues>
            1.7640680074691772e-01 -9.1971921920776367e-01</leafValues></_>
        <_>
          <internalNodes>
            0 -1 60 9.0265122707933187e-04</internalNodes>
          <leafValues>
            -3.9239299297332764e-01 4.3958693742752075e-01</leafValues></_>
        <_>
          <internalNodes>
            0 -1 93 1.3674790970981121e-03</internalNodes>
          <leafValues>
            2.1557466685771942e-01 -8.5198843479156494e-01</leafValues></_>
        <_>
          <internalNodes>
            0 -1 86 1.1936576105654240e-02</internalNodes>
          <leafValues>
            1.5708929300308228e-01 -9.1144824028015137e-01</leafValues></_>
        <_>
          <internalNodes>
            0 -1 9 1.0248582839267328e-04</internalNodes>
          <leafValues>
            2.9941955208778381e-01 -5.0644505023956299e-01</leafValues></_>
        <_>
          <internalNodes>
            0 -1 51 -1.4292469248175621e-02</internalNodes>
          <leafValues>
            6.2026900053024292e-01 -3.1248900294303894e-01</leafValues></_>
        <_>
          <internalNodes>
            0 -1 10 1.7276678234338760e-02</internalNodes>
          <leafValues>
            -4.4883072376251221e-01 4.6637839078903198e-01</leafValues></_></weakClassifiers></_>
    <!-- stage 14 -->
    <_>
      <maxWeakCount>5</maxWeakCount>
      <stageThreshold>-8.1050240993499756e-01</stageThreshold>
      <weakClassifiers>
        <_>
          <internalNodes>
            0 -1 42 2.6968052610754967e-02</internalNodes>
          <leafValues>
            -4.5040649175643921e-01 7.8846156597137451e-01</leafValues></_>
        <_>
          <internalNodes>
            0 -1 7 7.8346937894821167e-02</internalNodes>
          <leafValues>
            -9.3444120883941650e-01 1.8634876608848572e-01</leafValues></_>
        <_>
          <internalNodes>
            0 -1 37 9.2247731983661652e-02</internalNodes>
          <leafValues>
            -7.2415620088577271e-01 1.7548321187496185e-01</leafValues></_>
        <_>
          <internalNodes>
            0 -1 45 5.2478909492492676e-01</internalNodes>
          <leafValues>
            1.3731653988361359e-01 -1.</leafValues></_>
        <_>
          <internalNodes>
            0 -1 26 -5.3999330848455429e-03</internalNodes>
          <leafValues>
            -8.5924440622329712e-01 1.6533102095127106e-01</leafValues></_></weakClassifiers></_>
    <!-- stage 15 -->
    <_>
      <maxWeakCount>3</maxWeakCount>
      <stageThreshold>-1.0190491676330566e+00</stageThreshold>
      <weakClassifiers>
        <_>
          <internalNodes>
            0 -1 5 1.1023494601249695e-01</internalNodes>
          <leafValues>
            -8.3333331346511841e-01 1.5970516204833984e-01</leafValues></_>
        <_>
          <internalNodes>
            0 -1 54 -1.5387451648712158e-01</internalNodes>
          <leafValues>
            2.5479686260223389e-01 -7.2134983539581299e-01</leafValues></_>
        <_>
          <internalNodes>
            0 -1 70 -5.0296483095735312e-04</internalNodes>
          <leafValues>
            -4.5740443468093872e-01 4.1019675135612488e-01</leafValues></_></weakClassifiers></_>
    <!-- stage 16 -->
    <_>
      <maxWeakCount>6</maxWeakCount>
      <stageThreshold>-9.8244935274124146e-01</stageThreshold>
      <weakClassifiers>
        <_>
          <internalNodes>
            0 -1 79 -1.0316794738173485e-02</internalNodes>
          <leafValues>
            7.9439252614974976e-01 -4.5751634240150452e-01</leafValues></_>
        <_>
          <internalNodes>
            0 -1 30 -3.6314716562628746e-03</internalNodes>
          <leafValues>
            -8.2625228166580200e-01 2.2069020569324493e-01</leafValues></_>
        <_>
          <internalNodes>
            0 -1 14 -2.8131506405770779e-04</internalNodes>
          <leafValues>
            3.0965253710746765e-01 -5.7127994298934937e-01</leafValues></_>
        <_>
          <internalNodes>
            0 -1 38 3.1106094829738140e-03</internalNodes>
          <leafValues>
            2.4011883139610291e-01 -8.9331352710723877e-01</leafValues></_>
        <_>
          <internalNodes>
            0 -1 63 2.2364575415849686e-02</internalNodes>
          <leafValues>
            -4.3810448050498962e-01 4.2613881826400757e-01</leafValues></_>
        <_>
          <internalNodes>
            0 -1 46 2.0206030458211899e-03</internalNodes>
          <leafValues>
            2.0634153485298157e-01 -8.3160561323165894e-01</leafValues></_></weakClassifiers></_>
    <!-- stage 17 -->
    <_>
      <maxWeakCount>6</maxWeakCount>
      <stageThreshold>-8.6308676004409790e-01</stageThreshold>
      <weakClassifiers>
        <_>
          <internalNodes>
            0 -1 75 -5.8186212554574013e-03</internalNodes>
          <leafValues>
            4.7674417495727539e-01 -5.0639855861663818e-01</leafValues></_>
        <_>
          <internalNodes>
            0 -1 23 6.0712173581123352e-04</internalNodes>
          <leafValues>
            1.9655275344848633e-01 -8.8512700796127319e-01</leafValues></_>
        <_>
          <internalNodes>
            0 -1 84 -1.3197043910622597e-02</internalNodes>
          <leafValues>
            6.1078453063964844e-01 -3.0964100360870361e-01</leafValues></_>
        <_>
          <internalNodes>
            0 -1 1 1.5595580916851759e-03</internalNodes>
          <leafValues>
            2.8968593478202820e-01 -7.6918506622314453e-01</leafValues></_>
        <_>
          <internalNodes>
            0 -1 0 -3.3072528894990683e-03</internalNodes>
          <leafValues>
            -9.1165608167648315e-01 1.4885991811752319e-01</leafValues></_>
        <_>
          <internalNodes>
            0 -1 40 -2.7557876892387867e-03</internalNodes>
          <leafValues>
            3.9953392744064331e-01 -4.2930284142494202e-01</leafValues></_></weakClassifiers></_>
    <!-- stage 18 -->
    <_>
      <maxWeakCount>8</maxWeakCount>
      <stageThreshold>-7.8760296106338501e-01</stageThreshold>
      <weakClassifiers>
        <_>
          <internalNodes>
            0 -1 87 -1.5822760760784149e-02</internalNodes>
          <leafValues>
            5.9689921140670776e-01 -4.6101695299148560e-01</leafValues></_>
        <_>
          <internalNodes>
            0 -1 17 2.1615758305415511e-04</internalNodes>
          <leafValues>
            3.0431953072547913e-01 -5.3202283382415771e-01</leafValues></_>
        <_>
          <internalNodes>
            0 -1 24 -1.9166067941114306e-03</internalNodes>
          <leafValues>
            -9.0689796209335327e-01 1.6776372492313385e-01</leafValues></_>
        <_>
          <internalNodes>
            0 -1 94 -3.4955309820361435e-04</internalNodes>
          <leafValues>
            -4.3504488468170166e-01 3.3245494961738586e-01</leafValues></_>
        <_>
          <internalNodes>
            0 -1 13 2.0630637183785439e-02</internalNodes>
          <leafValues>
            1.9286973774433136e-01 -8.6104518175125122e-01</leafValues></_>
        <_>
          <internalNodes>
            0 -1 56 2.2571701556444168e-02</internalNodes>
          <leafValues>
            -2.9861256480216980e-01 6.2270337343215942e-01</leafValues></_>
        <_>
          <internalNodes>
            0 -1 8 7.7850220259279013e-04</internalNodes>
          <leafValues>
            2.7189981937408447e-01 -6.6898357868194580e-01</leafValues></_>
        <_>
          <internalNodes>
            0 -1 77 1.1979319155216217e-02</internalNodes>
          <leafValues>
            -3.1513631343841553e-01 4.7994455695152283e-01</leafValues></_></weakClassifiers></_>
    <!-- stage 19 -->
    <_>
      <maxWeakCount>7</maxWeakCount>
      <stageThreshold>-9.2505955696105957e-01</stageThreshold>
      <weakClassifiers>
        <_>
          <internalNodes>
            0 -1 73 -5.5664638057351112e-03</internalNodes>
          <leafValues>
            6.1151081323623657e-01 -4.8275861144065857e-01</leafValues></_>
        <_>
          <internalNodes>
            0 -1 11 -3.1443685293197632e-04</internalNodes>
          <leafValues>
            3.0821135640144348e-01 -5.1811438798904419e-01</leafValues></_>
        <_>
          <internalNodes>
            0 -1 27 1.7751526320353150e-03</internalNodes>
          <leafValues>
            1.4803072810173035e-01 -9.4063144922256470e-01</leafValues></_>
        <_>
          <internalNodes>
            0 -1 66 3.1056933104991913e-02</internalNodes>
          <leafValues>
            -2.8776761889457703e-01 5.1870924234390259e-01</leafValues></_>
        <_>
          <internalNodes>
            0 -1 20 -8.6620746878907084e-04</internalNodes>
          <leafValues>
            -4.1450786590576172e-01 4.0363574028015137e-01</leafValues></_>
        <_>
          <internalNodes>
            0 -1 39 2.7619089931249619e-02</internalNodes>
          <leafValues>
            -2.8376805782318115e-01 6.2540566921234131e-01</leafValues></_>
        <_>
          <internalNodes>
            0 -1 41 1.0613510385155678e-02</internalNodes>
          <leafValues>
            2.2131666541099548e-01 -8.0182433128356934e-01</leafValues></_></weakClassifiers></_></stages>
  <features>
    <_>
      <rects>
        <_>
          0 0 6 15 -1.</_>
        <_>
          3 0 3 15 2.</_></rects>
      <tilted>0</tilted></_>
    <_>
      <rects>
        <_>
          0 0 8 5 -1.</_>
        <_>
          4 0 4 5 2.</_></rects>
      <tilted>0</tilted></_>
    <_>
      <rects>
        <_>
          0 0 4 24 -1.</_>
        <_>
          0 8 4 8 3.</_></rects>
      <tilted>0</tilted></_>
    <_>
      <rects>
        <_>
          0 0 18 46 -1.</_>
        <_>
          9 0 9 46 2.</_></rects>
      <tilted>0</tilted></_>
    <_>
      <rects>
        <_>
          0 0 24 6 -1.</_>
        <_>
          12 0 12 6 2.</_></rects>
      <tilted>0</tilted></_>
    <_>
      <rects>
        <_>
          0 0 34 29 -1.</_>
        <_>
          17 0 17 29 2.</_></rects>
      <tilted>0</tilted></_>
    <_>
      <rects>
        <_>
          0 0 38 46 -1.</_>
        <_>
          19 0 19 46 2.</_></rects>
      <tilted>0</tilted></_>
    <_>
      <rects>
        <_>
          0 0 49 48 -1.</_>
        <_>
          0 16 49 16 3.</_></rects>
      <tilted>0</tilted></_>
    <_>
      <rects>
        <_>
          0 1 6 6 -1.</_>
        <_>
          3 1 3 6 2.</_></rects>
      <tilted>0</tilted></_>
    <_>
      <rects>
        <_>
          0 1 6 22 -1.</_>
        <_>
          0 12 6 11 2.</_></rects>
      <tilted>0</tilted></_>
    <_>
      <rects>
        <_>
          0 1 24 42 -1.</_>
        <_>
          8 1 8 42 3.</_></rects>
      <tilted>0</tilted></_>
    <_>
      <rects>
        <_>
          0 2 4 36 -1.</_>
        <_>
          2 2 2 36 2.</_></rects>
      <tilted>0</tilted></_>
    <_>
      <rects>
        <_>
          0 4 12 36 -1.</_>
        <_>
          0 4 6 18 2.</_>
        <_>
          6 22 6 18 2.</_></rects>
      <tilted>0</tilted></_>
    <_>
      <rects>
        <_>
          0 4 7 44 -1.</_>
        <_>
          0 26 7 22 2.</_></rects>
      <tilted>0</tilted></_>
    <_>
      <rects>
        <_>
          0 8 4 26 -1.</_>
        <_>
          2 8 2 26 2.</_></rects>
      <tilted>0</tilted></_>
    <_>
      <rects>
        <_>
          0 8 30 35 -1.</_>
        <_>
          15 8 15 35 2.</_></rects>
      <tilted>0</tilted></_>
    <_>
      <rects>
        <_>
          0 10 42 33 -1.</_>
        <_>
          14 10 14 33 3.</_></rects>
      <tilted>0</tilted></_>
    <_>
      <rects>
        <_>
          0 12 6 12 -1.</_>
        <_>
          3 12 3 12 2.</_></rects>
      <tilted>0</tilted></_>
    <_>
      <rects>
        <_>
          0 16 50 34 -1.</_>
        <_>
          0 33 50 17 2.</_></rects>
      <tilted>0</tilted></_>
    <_>
      <rects>
        <_>
          0 20 6 16 -1.</_>
        <_>
          3 20 3 16 2.</_></rects>
      <tilted>0</tilted></_>
    <_>
      <rects>
        <_>
          0 25 5 24 -1.</_>
        <_>
          0 37 5 12 2.</_></rects>
      <tilted>0</tilted></_>
    <_>
      <rects>
        <_>
          0 42 48 6 -1.</_>
        <_>
          16 42 16 6 3.</_></rects>
      <tilted>0</tilted></_>
    <_>
      <rects>
        <_>
          0 42 50 7 -1.</_>
        <_>
          25 42 25 7 2.</_></rects>
      <tilted>0</tilted></_>
    <_>
      <rects>
        <_>
          0 46 8 2 -1.</_>
        <_>
          4 46 4 2 2.</_></rects>
      <tilted>0</tilted></_>
    <_>
      <rects>
        <_>
          1 0 8 5 -1.</_>
        <_>
          5 0 4 5 2.</_></rects>
      <tilted>0</tilted></_>
    <_>
      <rects>
        <_>
          1 0 47 24 -1.</_>
        <_>
          1 12 47 12 2.</_></rects>
      <tilted>0</tilted></_>
    <_>
      <rects>
        <_>
          1 22 4 24 -1.</_>
        <_>
          1 30 4 8 3.</_></rects>
      <tilted>0</tilted></_>
    <_>
      <rects>
        <_>
          1 38 2 12 -1.</_>
        <_>
          1 44 2 6 2.</_></rects>
      <tilted>0</tilted></_>
    <_>
      <rects>
        <_>
          1 46 8 4 -1.</_>
        <_>
          5 46 4 4 2.</_></rects>
      <tilted>0</tilted></_>
    <_>
      <rects>
        <_>
          2 0 46 50 -1.</_>
        <_>
          2 0 23 25 2.</_>
        <_>
          25 25 23 25 2.</_></rects>
      <tilted>0</tilted></_>
    <_>
      <rects>
        <_>
          2 1 5 21 -1.</_>
        <_>
          2 8 5 7 3.</_></rects>
      <tilted>0</tilted></_>
    <_>
      <rects>
        <_>
          2 8 45 27 -1.</_>
        <_>
          17 8 15 27 3.</_></rects>
      <tilted>0</tilted></_>
    <_>
      <rects>
        <_>
          2 9 48 31 -1.</_>
        <_>
          18 9 16 31 3.</_></rects>
      <tilted>0</tilted></_>
    <_>
      <rects>
        <_>
          2 12 2 18 -1.</_>
        <_>
          2 18 2 6 3.</_></rects>
      <tilted>0</tilted></_>
    <_>
      <rects>
        <_>
          2 41 40 3 -1.</_>
        <_>
          2 42 40 1 3.</_></rects>
      <tilted>0</tilted></_>
    <_>
      <rects>
        <_>
          3 0 10 46 -1.</_>
        <_>
          8 0 5 46 2.</_></rects>
      <tilted>0</tilted></_>
    <_>
      <rects>
        <_>
          3 4 10 41 -1.</_>
        <_>
          8 4 5 41 2.</_></rects>
      <tilted>0</tilted></_>
    <_>
      <rects>
        <_>
          3 7 39 29 -1.</_>
        <_>
          16 7 13 29 3.</_></rects>
      <tilted>0</tilted></_>
    <_>
      <rects>
        <_>
          3 25 2 20 -1.</_>
        <_>
          3 35 2 10 2.</_></rects>
      <tilted>0</tilted></_>
    <_>
      <rects>
        <_>
          3 31 39 18 -1.</_>
        <_>
          3 37 39 6 3.</_></rects>
      <tilted>0</tilted></_>
    <_>
      <rects>
        <_>
          3 42 24 5 -1.</_>
        <_>
          15 42 12 5 2.</_></rects>
      <tilted>0</tilted></_>
    <_>
      <rects>
        <_>
          4 0 46 5 -1.</_>
        <_>
          27 0 23 5 2.</_></rects>
      <tilted>0</tilted></_>
    <_>
      <rects>
        <_>
          4 1 6 42 -1.</_>
        <_>
          4 1 3 21 2.</_>
        <_>
          7 22 3 21 2.</_></rects>
      <tilted>0</tilted></_>
    <_>
      <rects>
        <_>
          4 26 40 24 -1.</_>
        <_>
          4 38 40 12 2.</_></rects>
      <tilted>0</tilted></_>
    <_>
      <rects>
        <_>
          5 0 36 4 -1.</_>
        <_>
          23 0 18 4 2.</_></rects>
      <tilted>0</tilted></_>
    <_>
      <rects>
        <_>
          5 1 45 45 -1.</_>
        <_>
          20 1 15 45 3.</_></rects>
      <tilted>0</tilted></_>
    <_>
      <rects>
        <_>
          8 2 38 1 -1.</_>
        <_>
          27 2 19 1 2.</_></rects>
      <tilted>0</tilted></_>
    <_>
      <rects>
        <_>
          9 0 27 48 -1.</_>
        <_>
          9 16 27 16 3.</_></rects>
      <tilted>0</tilted></_>
    <_>
      <rects>
        <_>
          10 0 20 3 -1.</_>
        <_>
          20 0 10 3 2.</_></rects>
      <tilted>0</tilted></_>
    <_>
      <rects>
        <_>
          10 4 21 18 -1.</_>
        <_>
          10 10 21 6 3.</_></rects>
      <tilted>0</tilted></_>
    <_>
      <rects>
        <_>
          10 22 20 12 -1.</_>
        <_>
          10 26 20 4 3.</_></rects>
      <tilted>0</tilted></_>
    <_>
      <rects>
        <_>
          10 32 20 12 -1.</_>
        <_>
          10 32 10 6 2.</_>
        <_>
          20 38 10 6 2.</_></rects>
      <tilted>0</tilted></_>
    <_>
      <rects>
        <_>
          12 1 26 1 -1.</_>
        <_>
          25 1 13 1 2.</_></rects>
      <tilted>0</tilted></_>
    <_>
      <rects>
        <_>
          12 46 24 4 -1.</_>
        <_>
          12 48 24 2 2.</_></rects>
      <tilted>0</tilted></_>
    <_>
      <rects>
        <_>
          14 0 36 49 -1.</_>
        <_>
          32 0 18 49 2.</_></rects>
      <tilted>0</tilted></_>
    <_>
      <rects>
        <_>
          14 1 20 2 -1.</_>
        <_>
          24 1 10 2 2.</_></rects>
      <tilted>0</tilted></_>
    <_>
      <rects>
        <_>
          14 31 24 5 -1.</_>
        <_>
          22 31 8 5 3.</_></rects>
      <tilted>0</tilted></_>
    <_>
      <rects>
        <_>
          16 0 30 3 -1.</_>
        <_>
          31 0 15 3 2.</_></rects>
      <tilted>0</tilted></_>
    <_>
      <rects>
        <_>
          16 6 17 15 -1.</_>
        <_>
          16 11 17 5 3.</_></rects>
      <tilted>0</tilted></_>
    <_>
      <rects>
        <_>
          16 8 34 31 -1.</_>
        <_>
          33 8 17 31 2.</_></rects>
      <tilted>0</tilted></_>
    <_>
      <rects>
        <_>
          16 44 12 6 -1.</_>
        <_>
          16 47 12 3 2.</_></rects>
      <tilted>0</tilted></_>
    <_>
      <rects>
        <_>
          17 0 28 48 -1.</_>
        <_>
          17 16 28 16 3.</_></rects>
      <tilted>0</tilted></_>
    <_>
      <rects>
        <_>
          17 4 15 12 -1.</_>
        <_>
          17 10 15 6 2.</_></rects>
      <tilted>0</tilted></_>
    <_>
      <rects>
        <_>
          17 24 16 24 -1.</_>
        <_>
          17 32 16 8 3.</_></rects>
      <tilted>0</tilted></_>
    <_>
      <rects>
        <_>
          18 3 10 14 -1.</_>
        <_>
          18 10 10 7 2.</_></rects>
      <tilted>0</tilted></_>
    <_>
      <rects>
        <_>
          19 3 9 14 -1.</_>
        <_>
          19 10 9 7 2.</_></rects>
      <tilted>0</tilted></_>
    <_>
      <rects>
        <_>
          19 17 18 17 -1.</_>
        <_>
          25 17 6 17 3.</_></rects>
      <tilted>0</tilted></_>
    <_>
      <rects>
        <_>
          19 27 16 18 -1.</_>
        <_>
          19 33 16 6 3.</_></rects>
      <tilted>0</tilted></_>
    <_>
      <rects>
        <_>
          20 16 23 3 -1.</_>
        <_>
          20 17 23 1 3.</_></rects>
      <tilted>0</tilted></_>
    <_>
      <rects>
        <_>
          20 31 6 16 -1.</_>
        <_>
          20 39 6 8 2.</_></rects>
      <tilted>0</tilted></_>
    <_>
      <rects>
        <_>
          22 0 28 6 -1.</_>
        <_>
          36 0 14 6 2.</_></rects>
      <tilted>0</tilted></_>
    <_>
      <rects>
        <_>
          22 35 14 3 -1.</_>
        <_>
          22 36 14 1 3.</_></rects>
      <tilted>0</tilted></_>
    <_>
      <rects>
        <_>
          26 17 17 3 -1.</_>
        <_>
          26 18 17 1 3.</_></rects>
      <tilted>0</tilted></_>
    <_>
      <rects>
        <_>
          27 49 20 1 -1.</_>
        <_>
          37 49 10 1 2.</_></rects>
      <tilted>0</tilted></_>
    <_>
      <rects>
        <_>
          28 13 22 21 -1.</_>
        <_>
          39 13 11 21 2.</_></rects>
      <tilted>0</tilted></_>
    <_>
      <rects>
        <_>
          28 45 22 1 -1.</_>
        <_>
          39 45 11 1 2.</_></rects>
      <tilted>0</tilted></_>
    <_>
      <rects>
        <_>
          30 7 20 31 -1.</_>
        <_>
          40 7 10 31 2.</_></rects>
      <tilted>0</tilted></_>
    <_>
      <rects>
        <_>
          30 21 12 18 -1.</_>
        <_>
          30 27 12 6 3.</_></rects>
      <tilted>0</tilted></_>
    <_>
      <rects>
        <_>
          33 2 16 47 -1.</_>
        <_>
          41 2 8 47 2.</_></rects>
      <tilted>0</tilted></_>
    <_>
      <rects>
        <_>
          33 46 10 4 -1.</_>
        <_>
          38 46 5 4 2.</_></rects>
      <tilted>0</tilted></_>
    <_>
      <rects>
        <_>
          35 42 14 8 -1.</_>
        <_>
          35 42 7 4 2.</_>
        <_>
          42 46 7 4 2.</_></rects>
      <tilted>0</tilted></_>
    <_>
      <rects>
        <_>
          35 48 14 2 -1.</_>
        <_>
          42 48 7 2 2.</_></rects>
      <tilted>0</tilted></_>
    <_>
      <rects>
        <_>
          36 3 12 43 -1.</_>
        <_>
          42 3 6 43 2.</_></rects>
      <tilted>0</tilted></_>
    <_>
      <rects>
        <_>
          37 8 12 28 -1.</_>
        <_>
          37 8 6 14 2.</_>
        <_>
          43 22 6 14 2.</_></rects>
      <tilted>0</tilted></_>
    <_>
      <rects>
        <_>
          37 19 12 8 -1.</_>
        <_>
          41 19 4 8 3.</_></rects>
      <tilted>0</tilted></_>
    <_>
      <rects>
        <_>
          38 6 12 41 -1.</_>
        <_>
          42 6 4 41 3.</_></rects>
      <tilted>0</tilted></_>
    <_>
      <rects>
        <_>
          39 18 8 32 -1.</_>
        <_>
          39 34 8 16 2.</_></rects>
      <tilted>0</tilted></_>
    <_>
      <rects>
        <_>
          40 6 6 34 -1.</_>
        <_>
          40 6 3 17 2.</_>
        <_>
          43 23 3 17 2.</_></rects>
      <tilted>0</tilted></_>
    <_>
      <rects>
        <_>
          41 1 7 15 -1.</_>
        <_>
          41 6 7 5 3.</_></rects>
      <tilted>0</tilted></_>
    <_>
      <rects>
        <_>
          41 46 6 3 -1.</_>
        <_>
          44 46 3 3 2.</_></rects>
      <tilted>0</tilted></_>
    <_>
      <rects>
        <_>
          43 10 6 28 -1.</_>
        <_>
          46 10 3 28 2.</_></rects>
      <tilted>0</tilted></_>
    <_>
      <rects>
        <_>
          44 0 6 45 -1.</_>
        <_>
          47 0 3 45 2.</_></rects>
      <tilted>0</tilted></_>
    <_>
      <rects>
        <_>
          44 19 6 30 -1.</_>
        <_>
          44 29 6 10 3.</_></rects>
      <tilted>0</tilted></_>
    <_>
      <rects>
        <_>
          45 7 1 26 -1.</_>
        <_>
          45 20 1 13 2.</_></rects>
      <tilted>0</tilted></_>
    <_>
      <rects>
        <_>
          45 32 5 18 -1.</_>
        <_>
          45 41 5 9 2.</_></rects>
      <tilted>0</tilted></_>
    <_>
      <rects>
        <_>
          46 2 1 44 -1.</_>
        <_>
          46 24 1 22 2.</_></rects>
      <tilted>0</tilted></_>
    <_>
      <rects>
        <_>
          46 9 3 28 -1.</_>
        <_>
          46 23 3 14 2.</_></rects>
      <tilted>0</tilted></_>
    <_>
      <rects>
        <_>
          46 20 2 20 -1.</_>
        <_>
          46 30 2 10 2.</_></rects>
      <tilted>0</tilted></_>
    <_>
      <rects>
        <_>
          47 12 3 21 -1.</_>
        <_>
          47 19 3 7 3.</_></rects>
      <tilted>0</tilted></_>
    <_>
      <rects>
        <_>
          47 42 2 2 -1.</_>
        <_>
          47 42 1 1 2.</_>
        <_>
          48 43 1 1 2.</_></rects>
      <tilted>0</tilted></_></features></cascade>
</opencv_storage>
