<?xml version="1.0"?>
<opencv_storage>
<cascade>
  <stageType>BOOST</stageType>
  <featureType>HAAR</featureType>
  <height>46</height>
  <width>38</width>
  <stageParams>
    <boostType>GAB</boostType>
    <minHitRate>9.9500000476837158e-01</minHitRate>
    <maxFalseAlarm>5.0000000000000000e-01</maxFalseAlarm>
    <weightTrimRate>9.4999998807907104e-01</weightTrimRate>
    <maxDepth>1</maxDepth>
    <maxWeakCount>100</maxWeakCount></stageParams>
  <featureParams>
    <maxCatCount>0</maxCatCount>
    <featSize>1</featSize>
    <mode>BASIC</mode></featureParams>
  <stageNum>6</stageNum>
  <stages>
    <!-- stage 0 -->
    <_>
      <maxWeakCount>6</maxWeakCount>
      <stageThreshold>-2.0445203781127930e+00</stageThreshold>
      <weakClassifiers>
        <_>
          <internalNodes>
            0 -1 5 -5.3007099777460098e-02</internalNodes>
          <leafValues>
            2.9670330882072449e-01 -8.9975249767303467e-01</leafValues></_>
        <_>
          <internalNodes>
            0 -1 26 2.9338587075471878e-02</internalNodes>
          <leafValues>
            -7.9518455266952515e-01 4.1707158088684082e-01</leafValues></_>
        <_>
          <internalNodes>
            0 -1 9 -4.9534132704138756e-03</internalNodes>
          <leafValues>
            3.9691349864006042e-01 -7.8909885883331299e-01</leafValues></_>
        <_>
          <internalNodes>
            0 -1 19 1.1790951248258352e-03</internalNodes>
          <leafValues>
            -8.2108747959136963e-01 3.6866581439971924e-01</leafValues></_>
        <_>
          <internalNodes>
            0 -1 17 -1.8536249175667763e-02</internalNodes>
          <leafValues>
            5.5291187763214111e-01 -4.7635671496391296e-01</leafValues></_>
        <_>
          <internalNodes>
            0 -1 16 1.1498028412461281e-02</internalNodes>
          <leafValues>
            -4.2582392692565918e-01 5.5094724893569946e-01</leafValues></_></weakClassifiers></_>
    <!-- stage 1 -->
    <_>
      <maxWeakCount>7</maxWeakCount>
      <stageThreshold>-2.5104589462280273e+00</stageThreshold>
      <weakClassifiers>
        <_>
          <internalNodes>
            0 -1 7 -6.8400509655475616e-02</internalNodes>
          <leafValues>
            6.1445784568786621e-01 -8.4606415033340454e-01</leafValues></_>
        <_>
          <internalNodes>
            0 -1 10 3.2572209835052490e-01</internalNodes>
          <leafValues>
            -6.9382995367050171e-01 6.7007195949554443e-01</leafValues></_>
        <_>
          <internalNodes>
            0 -1 1 -1.8305663019418716e-02</internalNodes>
          <leafValues>
            3.5817322134971619e-01 -7.3650997877120972e-01</leafValues></_>
        <_>
          <internalNodes>
            0 -1 24 3.2216638326644897e-02</internalNodes>
          <leafValues>
            -5.1899641752243042e-01 4.9465724825859070e-01</leafValues></_>
        <_>
          <internalNodes>
            0 -1 33 3.8229452911764383e-04</internalNodes>
          <leafValues>
            2.4612767994403839e-01 -9.0905696153640747e-01</leafValues></_>
        <_>
          <internalNodes>
            0 -1 15 -2.4384899006690830e-04</internalNodes>
          <leafValues>
            3.8210254907608032e-01 -6.0451221466064453e-01</leafValues></_>
        <_>
          <internalNodes>
            0 -1 27 -3.1356728868559003e-05</internalNodes>
          <leafValues>
            -7.2057586908340454e-01 3.0200189352035522e-01</leafValues></_></weakClassifiers></_>
    <!-- stage 2 -->
    <_>
      <maxWeakCount>6</maxWeakCount>
      <stageThreshold>-1.7970162630081177e+00</stageThreshold>
      <weakClassifiers>
        <_>
          <internalNodes>
            0 -1 21 1.1464109644293785e-02</internalNodes>
          <leafValues>
            -8.4004604816436768e-01 1.</leafValues></_>
        <_>
          <internalNodes>
            0 -1 8 -1.5218447893857956e-02</internalNodes>
          <leafValues>
            2.8712925314903259e-01 -7.6359605789184570e-01</leafValues></_>
        <_>
          <internalNodes>
            0 -1 4 2.5481658056378365e-02</internalNodes>
          <leafValues>
            -3.6857914924621582e-01 6.8443638086318970e-01</leafValues></_>
        <_>
          <internalNodes>
            0 -1 25 -2.4206282570958138e-02</internalNodes>
          <leafValues>
            7.8330910205841064e-01 -3.3627170324325562e-01</leafValues></_>
        <_>
          <internalNodes>
            0 -1 32 -8.0709671601653099e-04</internalNodes>
          <leafValues>
            -8.0587649345397949e-01 3.4526076912879944e-01</leafValues></_>
        <_>
          <internalNodes>
            0 -1 0 2.5036986917257309e-03</internalNodes>
          <leafValues>
            2.6433765888214111e-01 -9.0514433383941650e-01</leafValues></_></weakClassifiers></_>
    <!-- stage 3 -->
    <_>
      <maxWeakCount>6</maxWeakCount>
      <stageThreshold>-1.9324439764022827e+00</stageThreshold>
      <weakClassifiers>
        <_>
          <internalNodes>
            0 -1 14 1.0351826250553131e-01</internalNodes>
          <leafValues>
            -8.4962403774261475e-01 1.</leafValues></_>
        <_>
          <internalNodes>
            0 -1 13 8.7849728763103485e-02</internalNodes>
          <leafValues>
            -6.4540070295333862e-01 1.</leafValues></_>
        <_>
          <internalNodes>
            0 -1 3 -2.5837685912847519e-02</internalNodes>
          <leafValues>
            5.2830100059509277e-01 -6.7984879016876221e-01</leafValues></_>
        <_>
          <internalNodes>
            0 -1 31 3.0409835744649172e-04</internalNodes>
          <leafValues>
            -5.2572882175445557e-01 5.8242052793502808e-01</leafValues></_>
        <_>
          <internalNodes>
            0 -1 22 -3.3892931242007762e-05</internalNodes>
          <leafValues>
            4.6125283837318420e-01 -6.5436959266662598e-01</leafValues></_>
        <_>
          <internalNodes>
            0 -1 12 -4.1429223492741585e-03</internalNodes>
          <leafValues>
            -8.0124372243881226e-01 3.8720798492431641e-01</leafValues></_></weakClassifiers></_>
    <!-- stage 4 -->
    <_>
      <maxWeakCount>6</maxWeakCount>
      <stageThreshold>-1.8061289787292480e+00</stageThreshold>
      <weakClassifiers>
        <_>
          <internalNodes>
            0 -1 29 3.2171668135561049e-04</internalNodes>
          <leafValues>
            -8.6581099033355713e-01 1.</leafValues></_>
        <_>
          <internalNodes>
            0 -1 30 -1.1622078018262982e-03</internalNodes>
          <leafValues>
            6.8880271911621094e-01 -7.3039472103118896e-01</leafValues></_>
        <_>
          <internalNodes>
            0 -1 2 -1.8509984947741032e-03</internalNodes>
          <leafValues>
            -9.2591935396194458e-01 3.6167353391647339e-01</leafValues></_>
        <_>
          <internalNodes>
            0 -1 6 -1.9803810864686966e-02</internalNodes>
          <leafValues>
            5.4758560657501221e-01 -6.0211980342864990e-01</leafValues></_>
        <_>
          <internalNodes>
            0 -1 11 -1.7961056437343359e-04</internalNodes>
          <leafValues>
            1. -3.6404141783714294e-01</leafValues></_>
        <_>
          <internalNodes>
            0 -1 28 2.5052991695702076e-03</internalNodes>
          <leafValues>
            3.9456441998481750e-01 -9.6704471111297607e-01</leafValues></_></weakClassifiers></_>
    <!-- stage 5 -->
    <_>
      <maxWeakCount>4</maxWeakCount>
      <stageThreshold>-1.5199576616287231e+00</stageThreshold>
      <weakClassifiers>
        <_>
          <internalNodes>
            0 -1 20 3.9059767732396722e-04</internalNodes>
          <leafValues>
            -9.6076029539108276e-01 1.</leafValues></_>
        <_>
          <internalNodes>
            0 -1 18 -1.3578965081251226e-05</internalNodes>
          <leafValues>
            -8.5423284769058228e-01 1.</leafValues></_>
        <_>
          <internalNodes>
            0 -1 23 1.0116837074747309e-04</internalNodes>
          <leafValues>
            -7.0496451854705811e-01 1.</leafValues></_>
        <_>
          <internalNodes>
            0 -1 34 2.0902969117742032e-04</internalNodes>
          <leafValues>
            -5.1245331764221191e-01 1.</leafValues></_></weakClassifiers></_></stages>
  <features>
    <_>
      <rects>
        <_>
          0 0 12 5 -1.</_>
        <_>
          6 0 6 5 2.</_></rects>
      <tilted>0</tilted></_>
    <_>
      <rects>
        <_>
          0 0 12 42 -1.</_>
        <_>
          0 0 6 21 2.</_>
        <_>
          6 21 6 21 2.</_></rects>
      <tilted>0</tilted></_>
    <_>
      <rects>
        <_>
          0 2 6 7 -1.</_>
        <_>
          3 2 3 7 2.</_></rects>
      <tilted>0</tilted></_>
    <_>
      <rects>
        <_>
          0 2 16 38 -1.</_>
        <_>
          0 2 8 19 2.</_>
        <_>
          8 21 8 19 2.</_></rects>
      <tilted>0</tilted></_>
    <_>
      <rects>
        <_>
          0 7 10 26 -1.</_>
        <_>
          5 7 5 26 2.</_></rects>
      <tilted>0</tilted></_>
    <_>
      <rects>
        <_>
          0 12 14 24 -1.</_>
        <_>
          0 12 7 12 2.</_>
        <_>
          7 24 7 12 2.</_></rects>
      <tilted>0</tilted></_>
    <_>
      <rects>
        <_>
          0 13 12 22 -1.</_>
        <_>
          0 13 6 11 2.</_>
        <_>
          6 24 6 11 2.</_></rects>
      <tilted>0</tilted></_>
    <_>
      <rects>
        <_>
          0 16 10 20 -1.</_>
        <_>
          5 16 5 20 2.</_></rects>
      <tilted>0</tilted></_>
    <_>
      <rects>
        <_>
          0 29 12 8 -1.</_>
        <_>
          6 29 6 8 2.</_></rects>
      <tilted>0</tilted></_>
    <_>
      <rects>
        <_>
          0 34 14 8 -1.</_>
        <_>
          7 34 7 8 2.</_></rects>
      <tilted>0</tilted></_>
    <_>
      <rects>
        <_>
          5 1 32 39 -1.</_>
        <_>
          5 14 32 13 3.</_></rects>
      <tilted>0</tilted></_>
    <_>
      <rects>
        <_>
          5 10 2 8 -1.</_>
        <_>
          5 10 1 4 2.</_>
        <_>
          6 14 1 4 2.</_></rects>
      <tilted>0</tilted></_>
    <_>
      <rects>
        <_>
          7 22 22 9 -1.</_>
        <_>
          18 22 11 9 2.</_></rects>
      <tilted>0</tilted></_>
    <_>
      <rects>
        <_>
          7 28 18 18 -1.</_>
        <_>
          7 37 18 9 2.</_></rects>
      <tilted>0</tilted></_>
    <_>
      <rects>
        <_>
          10 1 27 14 -1.</_>
        <_>
          10 8 27 7 2.</_></rects>
      <tilted>0</tilted></_>
    <_>
      <rects>
        <_>
          12 30 17 2 -1.</_>
        <_>
          12 31 17 1 2.</_></rects>
      <tilted>0</tilted></_>
    <_>
      <rects>
        <_>
          13 7 18 16 -1.</_>
        <_>
          19 7 6 16 3.</_></rects>
      <tilted>0</tilted></_>
    <_>
      <rects>
        <_>
          13 20 3 24 -1.</_>
        <_>
          13 28 3 8 3.</_></rects>
      <tilted>0</tilted></_>
    <_>
      <rects>
        <_>
          14 32 1 4 -1.</_>
        <_>
          14 34 1 2 2.</_></rects>
      <tilted>0</tilted></_>
    <_>
      <rects>
        <_>
          17 40 13 4 -1.</_>
        <_>
          17 42 13 2 2.</_></rects>
      <tilted>0</tilted></_>
    <_>
      <rects>
        <_>
          18 42 7 4 -1.</_>
        <_>
          18 44 7 2 2.</_></rects>
      <tilted>0</tilted></_>
    <_>
      <rects>
        <_>
          19 7 12 6 -1.</_>
        <_>
          19 7 6 3 2.</_>
        <_>
          25 10 6 3 2.</_></rects>
      <tilted>0</tilted></_>
    <_>
      <rects>
        <_>
          21 40 12 6 -1.</_>
        <_>
          21 40 6 3 2.</_>
        <_>
          27 43 6 3 2.</_></rects>
      <tilted>0</tilted></_>
    <_>
      <rects>
        <_>
          22 41 4 3 -1.</_>
        <_>
          24 41 2 3 2.</_></rects>
      <tilted>0</tilted></_>
    <_>
      <rects>
        <_>
          25 3 12 34 -1.</_>
        <_>
          25 3 6 17 2.</_>
        <_>
          31 20 6 17 2.</_></rects>
      <tilted>0</tilted></_>
    <_>
      <rects>
        <_>
          25 28 12 18 -1.</_>
        <_>
          25 28 6 9 2.</_>
        <_>
          31 37 6 9 2.</_></rects>
      <tilted>0</tilted></_>
    <_>
      <rects>
        <_>
          26 5 12 32 -1.</_>
        <_>
          26 5 6 16 2.</_>
        <_>
          32 21 6 16 2.</_></rects>
      <tilted>0</tilted></_>
    <_>
      <rects>
        <_>
          26 40 11 6 -1.</_>
        <_>
          26 43 11 3 2.</_></rects>
      <tilted>0</tilted></_>
    <_>
      <rects>
        <_>
          28 40 2 6 -1.</_>
        <_>
          28 43 2 3 2.</_></rects>
      <tilted>0</tilted></_>
    <_>
      <rects>
        <_>
          29 11 4 4 -1.</_>
        <_>
          29 11 2 2 2.</_>
        <_>
          31 13 2 2 2.</_></rects>
      <tilted>0</tilted></_>
    <_>
      <rects>
        <_>
          30 10 4 10 -1.</_>
        <_>
          30 10 2 5 2.</_>
        <_>
          32 15 2 5 2.</_></rects>
      <tilted>0</tilted></_>
    <_>
      <rects>
        <_>
          32 14 2 18 -1.</_>
        <_>
          32 14 1 9 2.</_>
        <_>
          33 23 1 9 2.</_></rects>
      <tilted>0</tilted></_>
    <_>
      <rects>
        <_>
          37 1 1 14 -1.</_>
        <_>
          37 8 1 7 2.</_></rects>
      <tilted>0</tilted></_>
    <_>
      <rects>
        <_>
          37 2 1 16 -1.</_>
        <_>
          37 10 1 8 2.</_></rects>
      <tilted>0</tilted></_>
    <_>
      <rects>
        <_>
          37 22 1 9 -1.</_>
        <_>
          37 25 1 3 3.</_></rects>
      <tilted>0</tilted></_></features></cascade>
</opencv_storage>
