<?xml version="1.0"?>
<opencv_storage>
<cascade>
  <stageType>BOOST</stageType>
  <featureType>HAAR</featureType>
  <height>46</height>
  <width>38</width>
  <stageParams>
    <boostType>GAB</boostType>
    <minHitRate>9.9500000476837158e-01</minHitRate>
    <maxFalseAlarm>5.0000000000000000e-01</maxFalseAlarm>
    <weightTrimRate>9.4999998807907104e-01</weightTrimRate>
    <maxDepth>1</maxDepth>
    <maxWeakCount>100</maxWeakCount></stageParams>
  <featureParams>
    <maxCatCount>0</maxCatCount>
    <featSize>1</featSize>
    <mode>BASIC</mode></featureParams>
  <stageNum>7</stageNum>
  <stages>
    <!-- stage 0 -->
    <_>
      <maxWeakCount>6</maxWeakCount>
      <stageThreshold>-2.7490949630737305e+00</stageThreshold>
      <weakClassifiers>
        <_>
          <internalNodes>
            0 -1 29 3.2848689705133438e-02</internalNodes>
          <leafValues>
            -9.2547345161437988e-01 6.6361553966999054e-02</leafValues></_>
        <_>
          <internalNodes>
            0 -1 6 -3.2122924923896790e-02</internalNodes>
          <leafValues>
            3.8245621323585510e-01 -7.9393112659454346e-01</leafValues></_>
        <_>
          <internalNodes>
            0 -1 12 -2.7412744238972664e-02</internalNodes>
          <leafValues>
            4.4855171442031860e-01 -6.1981236934661865e-01</leafValues></_>
        <_>
          <internalNodes>
            0 -1 8 -6.3342723296955228e-04</internalNodes>
          <leafValues>
            3.6044231057167053e-01 -6.0869669914245605e-01</leafValues></_>
        <_>
          <internalNodes>
            0 -1 24 -1.3969324529170990e-01</internalNodes>
          <leafValues>
            6.4491897821426392e-01 -3.5235947370529175e-01</leafValues></_>
        <_>
          <internalNodes>
            0 -1 26 8.3351391367614269e-04</internalNodes>
          <leafValues>
            -5.1718610525131226e-01 4.4024249911308289e-01</leafValues></_></weakClassifiers></_>
    <!-- stage 1 -->
    <_>
      <maxWeakCount>7</maxWeakCount>
      <stageThreshold>-1.8279153108596802e+00</stageThreshold>
      <weakClassifiers>
        <_>
          <internalNodes>
            0 -1 31 3.5035401582717896e-02</internalNodes>
          <leafValues>
            -8.9544898271560669e-01 -6.6964283585548401e-02</leafValues></_>
        <_>
          <internalNodes>
            0 -1 17 -2.8451281785964966e-01</internalNodes>
          <leafValues>
            4.1251209378242493e-01 -6.5066713094711304e-01</leafValues></_>
        <_>
          <internalNodes>
            0 -1 11 -2.4109899997711182e-02</internalNodes>
          <leafValues>
            6.4540368318557739e-01 -5.0570082664489746e-01</leafValues></_>
        <_>
          <internalNodes>
            0 -1 25 1.8453279044479132e-03</internalNodes>
          <leafValues>
            -4.3431347608566284e-01 4.7981962561607361e-01</leafValues></_>
        <_>
          <internalNodes>
            0 -1 5 1.9110780954360962e-01</internalNodes>
          <leafValues>
            -3.3994489908218384e-01 7.6237565279006958e-01</leafValues></_>
        <_>
          <internalNodes>
            0 -1 32 7.0390347391366959e-03</internalNodes>
          <leafValues>
            -3.5771530866622925e-01 5.5244815349578857e-01</leafValues></_>
        <_>
          <internalNodes>
            0 -1 22 -9.7621837630867958e-04</internalNodes>
          <leafValues>
            4.4174224138259888e-01 -5.5086642503738403e-01</leafValues></_></weakClassifiers></_>
    <!-- stage 2 -->
    <_>
      <maxWeakCount>7</maxWeakCount>
      <stageThreshold>-1.8269653320312500e+00</stageThreshold>
      <weakClassifiers>
        <_>
          <internalNodes>
            0 -1 28 1.7603913322091103e-02</internalNodes>
          <leafValues>
            -8.1185030937194824e-01 5.0666666030883789e-01</leafValues></_>
        <_>
          <internalNodes>
            0 -1 30 2.6963524520397186e-02</internalNodes>
          <leafValues>
            -7.3149710893630981e-01 2.6801484823226929e-01</leafValues></_>
        <_>
          <internalNodes>
            0 -1 4 -4.8596779815852642e-03</internalNodes>
          <leafValues>
            -6.8111348152160645e-01 2.8496369719505310e-01</leafValues></_>
        <_>
          <internalNodes>
            0 -1 18 -4.8231746768578887e-04</internalNodes>
          <leafValues>
            3.3983317017555237e-01 -6.9829177856445313e-01</leafValues></_>
        <_>
          <internalNodes>
            0 -1 3 6.8911153357475996e-04</internalNodes>
          <leafValues>
            2.2707660496234894e-01 -8.7578755617141724e-01</leafValues></_>
        <_>
          <internalNodes>
            0 -1 27 1.4771301721339114e-05</internalNodes>
          <leafValues>
            -6.4356017112731934e-01 2.9320037364959717e-01</leafValues></_>
        <_>
          <internalNodes>
            0 -1 21 1.7669063061475754e-02</internalNodes>
          <leafValues>
            -3.8857904076576233e-01 5.6457203626632690e-01</leafValues></_></weakClassifiers></_>
    <!-- stage 3 -->
    <_>
      <maxWeakCount>6</maxWeakCount>
      <stageThreshold>-1.5202878713607788e+00</stageThreshold>
      <weakClassifiers>
        <_>
          <internalNodes>
            0 -1 13 2.8484104201197624e-02</internalNodes>
          <leafValues>
            -8.3500790596008301e-01 5.0819671154022217e-01</leafValues></_>
        <_>
          <internalNodes>
            0 -1 19 -1.2694682180881500e-01</internalNodes>
          <leafValues>
            4.8765814304351807e-01 -6.7529255151748657e-01</leafValues></_>
        <_>
          <internalNodes>
            0 -1 35 3.8229452911764383e-04</internalNodes>
          <leafValues>
            2.4235822260379791e-01 -9.2448568344116211e-01</leafValues></_>
        <_>
          <internalNodes>
            0 -1 1 -4.3000906705856323e-02</internalNodes>
          <leafValues>
            9.0647959709167480e-01 -3.5326290130615234e-01</leafValues></_>
        <_>
          <internalNodes>
            0 -1 10 -3.4319066908210516e-03</internalNodes>
          <leafValues>
            8.6252927780151367e-01 -2.6242232322692871e-01</leafValues></_>
        <_>
          <internalNodes>
            0 -1 34 -1.0982744861394167e-03</internalNodes>
          <leafValues>
            -7.9961109161376953e-01 4.1018533706665039e-01</leafValues></_></weakClassifiers></_>
    <!-- stage 4 -->
    <_>
      <maxWeakCount>4</maxWeakCount>
      <stageThreshold>-1.5843141078948975e+00</stageThreshold>
      <weakClassifiers>
        <_>
          <internalNodes>
            0 -1 33 4.4132741168141365e-03</internalNodes>
          <leafValues>
            -8.2751542329788208e-01 1.</leafValues></_>
        <_>
          <internalNodes>
            0 -1 2 -3.7995349615812302e-02</internalNodes>
          <leafValues>
            7.8553682565689087e-01 -6.7735469341278076e-01</leafValues></_>
        <_>
          <internalNodes>
            0 -1 9 -6.1851640930399299e-04</internalNodes>
          <leafValues>
            4.5273244380950928e-01 -7.4995142221450806e-01</leafValues></_>
        <_>
          <internalNodes>
            0 -1 15 2.9749345034360886e-02</internalNodes>
          <leafValues>
            -5.2295875549316406e-01 6.7050737142562866e-01</leafValues></_></weakClassifiers></_>
    <!-- stage 5 -->
    <_>
      <maxWeakCount>5</maxWeakCount>
      <stageThreshold>-1.0293205976486206e+00</stageThreshold>
      <weakClassifiers>
        <_>
          <internalNodes>
            0 -1 23 -2.5018206238746643e-01</internalNodes>
          <leafValues>
            1. -8.8859415054321289e-01</leafValues></_>
        <_>
          <internalNodes>
            0 -1 7 2.4237927049398422e-02</internalNodes>
          <leafValues>
            -6.5254890918731689e-01 1.</leafValues></_>
        <_>
          <internalNodes>
            0 -1 16 -6.7215427756309509e-02</internalNodes>
          <leafValues>
            7.5544971227645874e-01 -7.1919804811477661e-01</leafValues></_>
        <_>
          <internalNodes>
            0 -1 14 -1.3723291922360659e-03</internalNodes>
          <leafValues>
            -9.0966433286666870e-01 4.4134634733200073e-01</leafValues></_>
        <_>
          <internalNodes>
            0 -1 20 9.7729251137934625e-05</internalNodes>
          <leafValues>
            -5.1686078310012817e-01 7.8967416286468506e-01</leafValues></_></weakClassifiers></_>
    <!-- stage 6 -->
    <_>
      <maxWeakCount>1</maxWeakCount>
      <stageThreshold>1.</stageThreshold>
      <weakClassifiers>
        <_>
          <internalNodes>
            0 -1 0 1.9306005910038948e-02</internalNodes>
          <leafValues>
            1. -1.</leafValues></_></weakClassifiers></_></stages>
  <features>
    <_>
      <rects>
        <_>
          0 0 1 36 -1.</_>
        <_>
          0 18 1 18 2.</_></rects>
      <tilted>0</tilted></_>
    <_>
      <rects>
        <_>
          0 0 10 32 -1.</_>
        <_>
          0 0 5 16 2.</_>
        <_>
          5 16 5 16 2.</_></rects>
      <tilted>0</tilted></_>
    <_>
      <rects>
        <_>
          0 0 10 34 -1.</_>
        <_>
          0 0 5 17 2.</_>
        <_>
          5 17 5 17 2.</_></rects>
      <tilted>0</tilted></_>
    <_>
      <rects>
        <_>
          0 0 14 1 -1.</_>
        <_>
          7 0 7 1 2.</_></rects>
      <tilted>0</tilted></_>
    <_>
      <rects>
        <_>
          0 1 1 42 -1.</_>
        <_>
          0 22 1 21 2.</_></rects>
      <tilted>0</tilted></_>
    <_>
      <rects>
        <_>
          0 2 36 29 -1.</_>
        <_>
          12 2 12 29 3.</_></rects>
      <tilted>0</tilted></_>
    <_>
      <rects>
        <_>
          0 5 14 38 -1.</_>
        <_>
          0 5 7 19 2.</_>
        <_>
          7 24 7 19 2.</_></rects>
      <tilted>0</tilted></_>
    <_>
      <rects>
        <_>
          0 18 14 28 -1.</_>
        <_>
          0 18 7 14 2.</_>
        <_>
          7 32 7 14 2.</_></rects>
      <tilted>0</tilted></_>
    <_>
      <rects>
        <_>
          0 29 4 16 -1.</_>
        <_>
          2 29 2 16 2.</_></rects>
      <tilted>0</tilted></_>
    <_>
      <rects>
        <_>
          0 37 8 6 -1.</_>
        <_>
          4 37 4 6 2.</_></rects>
      <tilted>0</tilted></_>
    <_>
      <rects>
        <_>
          1 20 4 22 -1.</_>
        <_>
          1 20 2 11 2.</_>
        <_>
          3 31 2 11 2.</_></rects>
      <tilted>0</tilted></_>
    <_>
      <rects>
        <_>
          1 26 12 12 -1.</_>
        <_>
          7 26 6 12 2.</_></rects>
      <tilted>0</tilted></_>
    <_>
      <rects>
        <_>
          2 16 18 30 -1.</_>
        <_>
          8 16 6 30 3.</_></rects>
      <tilted>0</tilted></_>
    <_>
      <rects>
        <_>
          4 0 7 24 -1.</_>
        <_>
          4 12 7 12 2.</_></rects>
      <tilted>0</tilted></_>
    <_>
      <rects>
        <_>
          5 0 14 1 -1.</_>
        <_>
          12 0 7 1 2.</_></rects>
      <tilted>0</tilted></_>
    <_>
      <rects>
        <_>
          5 0 20 46 -1.</_>
        <_>
          15 0 10 46 2.</_></rects>
      <tilted>0</tilted></_>
    <_>
      <rects>
        <_>
          7 14 19 24 -1.</_>
        <_>
          7 26 19 12 2.</_></rects>
      <tilted>0</tilted></_>
    <_>
      <rects>
        <_>
          8 8 18 38 -1.</_>
        <_>
          8 27 18 19 2.</_></rects>
      <tilted>0</tilted></_>
    <_>
      <rects>
        <_>
          9 17 1 12 -1.</_>
        <_>
          9 23 1 6 2.</_></rects>
      <tilted>0</tilted></_>
    <_>
      <rects>
        <_>
          10 9 20 24 -1.</_>
        <_>
          10 21 20 12 2.</_></rects>
      <tilted>0</tilted></_>
    <_>
      <rects>
        <_>
          10 35 14 2 -1.</_>
        <_>
          10 35 7 1 2.</_>
        <_>
          17 36 7 1 2.</_></rects>
      <tilted>0</tilted></_>
    <_>
      <rects>
        <_>
          12 1 18 20 -1.</_>
        <_>
          18 1 6 20 3.</_></rects>
      <tilted>0</tilted></_>
    <_>
      <rects>
        <_>
          12 29 15 4 -1.</_>
        <_>
          12 31 15 2 2.</_></rects>
      <tilted>0</tilted></_>
    <_>
      <rects>
        <_>
          13 11 21 34 -1.</_>
        <_>
          13 28 21 17 2.</_></rects>
      <tilted>0</tilted></_>
    <_>
      <rects>
        <_>
          13 13 11 32 -1.</_>
        <_>
          13 29 11 16 2.</_></rects>
      <tilted>0</tilted></_>
    <_>
      <rects>
        <_>
          16 40 6 6 -1.</_>
        <_>
          16 43 6 3 2.</_></rects>
      <tilted>0</tilted></_>
    <_>
      <rects>
        <_>
          24 40 14 6 -1.</_>
        <_>
          24 43 14 3 2.</_></rects>
      <tilted>0</tilted></_>
    <_>
      <rects>
        <_>
          25 42 6 4 -1.</_>
        <_>
          25 44 6 2 2.</_></rects>
      <tilted>0</tilted></_>
    <_>
      <rects>
        <_>
          26 2 4 12 -1.</_>
        <_>
          26 8 4 6 2.</_></rects>
      <tilted>0</tilted></_>
    <_>
      <rects>
        <_>
          26 3 12 36 -1.</_>
        <_>
          26 3 6 18 2.</_>
        <_>
          32 21 6 18 2.</_></rects>
      <tilted>0</tilted></_>
    <_>
      <rects>
        <_>
          26 4 12 34 -1.</_>
        <_>
          26 4 6 17 2.</_>
        <_>
          32 21 6 17 2.</_></rects>
      <tilted>0</tilted></_>
    <_>
      <rects>
        <_>
          26 6 12 30 -1.</_>
        <_>
          26 6 6 15 2.</_>
        <_>
          32 21 6 15 2.</_></rects>
      <tilted>0</tilted></_>
    <_>
      <rects>
        <_>
          26 25 12 5 -1.</_>
        <_>
          32 25 6 5 2.</_></rects>
      <tilted>0</tilted></_>
    <_>
      <rects>
        <_>
          28 2 1 14 -1.</_>
        <_>
          28 9 1 7 2.</_></rects>
      <tilted>0</tilted></_>
    <_>
      <rects>
        <_>
          35 38 3 8 -1.</_>
        <_>
          35 42 3 4 2.</_></rects>
      <tilted>0</tilted></_>
    <_>
      <rects>
        <_>
          37 2 1 16 -1.</_>
        <_>
          37 10 1 8 2.</_></rects>
      <tilted>0</tilted></_></features></cascade>
</opencv_storage>
