<?xml version="1.0"?>
<opencv_storage>
<cascade>
  <stageType>BOOST</stageType>
  <featureType>HAAR</featureType>
  <height>40</height>
  <width>40</width>
  <stageParams>
    <boostType>GAB</boostType>
    <minHitRate>9.9500000476837158e-01</minHitRate>
    <maxFalseAlarm>5.0000000000000000e-01</maxFalseAlarm>
    <weightTrimRate>9.4999998807907104e-01</weightTrimRate>
    <maxDepth>1</maxDepth>
    <maxWeakCount>100</maxWeakCount></stageParams>
  <featureParams>
    <maxCatCount>0</maxCatCount>
    <featSize>1</featSize>
    <mode>BASIC</mode></featureParams>
  <stageNum>8</stageNum>
  <stages>
    <!-- stage 0 -->
    <_>
      <maxWeakCount>3</maxWeakCount>
      <stageThreshold>-1.4291287660598755e+00</stageThreshold>
      <weakClassifiers>
        <_>
          <internalNodes>
            0 -1 11 -9.6289850771427155e-02</internalNodes>
          <leafValues>
            6.7114096879959106e-01 -9.6555864810943604e-01</leafValues></_>
        <_>
          <internalNodes>
            0 -1 3 1.8732445314526558e-02</internalNodes>
          <leafValues>
            -8.4290266036987305e-01 7.4648267030715942e-01</leafValues></_>
        <_>
          <internalNodes>
            0 -1 1 3.7798173725605011e-02</internalNodes>
          <leafValues>
            -9.3215543031692505e-01 3.7933260202407837e-01</leafValues></_></weakClassifiers></_>
    <!-- stage 1 -->
    <_>
      <maxWeakCount>4</maxWeakCount>
      <stageThreshold>-1.7692825794219971e+00</stageThreshold>
      <weakClassifiers>
        <_>
          <internalNodes>
            0 -1 4 -3.2779592275619507e-01</internalNodes>
          <leafValues>
            6.1543667316436768e-01 -8.5409992933273315e-01</leafValues></_>
        <_>
          <internalNodes>
            0 -1 13 -1.2303046882152557e-02</internalNodes>
          <leafValues>
            6.1669629812240601e-01 -7.8386241197586060e-01</leafValues></_>
        <_>
          <internalNodes>
            0 -1 26 -3.8380540907382965e-02</internalNodes>
          <leafValues>
            5.5910331010818481e-01 -6.8704068660736084e-01</leafValues></_>
        <_>
          <internalNodes>
            0 -1 16 3.0005192384123802e-03</internalNodes>
          <leafValues>
            -6.2614059448242188e-01 5.5572038888931274e-01</leafValues></_></weakClassifiers></_>
    <!-- stage 2 -->
    <_>
      <maxWeakCount>5</maxWeakCount>
      <stageThreshold>-1.4863466024398804e+00</stageThreshold>
      <weakClassifiers>
        <_>
          <internalNodes>
            0 -1 2 2.1881371736526489e-02</internalNodes>
          <leafValues>
            -9.1543960571289063e-01 3.5996055603027344e-01</leafValues></_>
        <_>
          <internalNodes>
            0 -1 10 -1.2343974411487579e-01</internalNodes>
          <leafValues>
            3.7770673632621765e-01 -9.1176551580429077e-01</leafValues></_>
        <_>
          <internalNodes>
            0 -1 20 1.1893312446773052e-02</internalNodes>
          <leafValues>
            -6.6195708513259888e-01 5.6900107860565186e-01</leafValues></_>
        <_>
          <internalNodes>
            0 -1 8 -2.4823719263076782e-01</internalNodes>
          <leafValues>
            4.2185288667678833e-01 -8.7668025493621826e-01</leafValues></_>
        <_>
          <internalNodes>
            0 -1 6 -6.4013842493295670e-03</internalNodes>
          <leafValues>
            6.0409569740295410e-01 -5.6465202569961548e-01</leafValues></_></weakClassifiers></_>
    <!-- stage 3 -->
    <_>
      <maxWeakCount>5</maxWeakCount>
      <stageThreshold>-1.9859044551849365e+00</stageThreshold>
      <weakClassifiers>
        <_>
          <internalNodes>
            0 -1 17 6.7503735423088074e-02</internalNodes>
          <leafValues>
            -8.0367660522460938e-01 7.4724340438842773e-01</leafValues></_>
        <_>
          <internalNodes>
            0 -1 27 -1.3672580942511559e-02</internalNodes>
          <leafValues>
            5.0547164678573608e-01 -7.0885801315307617e-01</leafValues></_>
        <_>
          <internalNodes>
            0 -1 22 1.1623749509453773e-02</internalNodes>
          <leafValues>
            -7.4425816535949707e-01 5.0868350267410278e-01</leafValues></_>
        <_>
          <internalNodes>
            0 -1 15 8.9043751358985901e-03</internalNodes>
          <leafValues>
            -5.4471409320831299e-01 8.4240227937698364e-01</leafValues></_>
        <_>
          <internalNodes>
            0 -1 9 9.0974159538745880e-03</internalNodes>
          <leafValues>
            -4.3733927607536316e-01 7.7538907527923584e-01</leafValues></_></weakClassifiers></_>
    <!-- stage 4 -->
    <_>
      <maxWeakCount>4</maxWeakCount>
      <stageThreshold>-1.6419630050659180e+00</stageThreshold>
      <weakClassifiers>
        <_>
          <internalNodes>
            0 -1 23 -1.4356684684753418e-01</internalNodes>
          <leafValues>
            7.8212291002273560e-01 -8.8635516166687012e-01</leafValues></_>
        <_>
          <internalNodes>
            0 -1 29 3.2084856647998095e-03</internalNodes>
          <leafValues>
            -7.0973956584930420e-01 7.2365951538085938e-01</leafValues></_>
        <_>
          <internalNodes>
            0 -1 30 -2.0137213170528412e-02</internalNodes>
          <leafValues>
            -6.7927068471908569e-01 5.9620565176010132e-01</leafValues></_>
        <_>
          <internalNodes>
            0 -1 21 -2.9928609728813171e-04</internalNodes>
          <leafValues>
            6.3340234756469727e-01 -5.9594738483428955e-01</leafValues></_></weakClassifiers></_>
    <!-- stage 5 -->
    <_>
      <maxWeakCount>4</maxWeakCount>
      <stageThreshold>-1.5842126607894897e+00</stageThreshold>
      <weakClassifiers>
        <_>
          <internalNodes>
            0 -1 24 -1.0379362106323242e-01</internalNodes>
          <leafValues>
            6.7065072059631348e-01 -8.7793785333633423e-01</leafValues></_>
        <_>
          <internalNodes>
            0 -1 7 -1.9753067754209042e-03</internalNodes>
          <leafValues>
            6.8664526939392090e-01 -7.6693719625473022e-01</leafValues></_>
        <_>
          <internalNodes>
            0 -1 12 1.5561696141958237e-02</internalNodes>
          <leafValues>
            -5.7677352428436279e-01 8.4368544816970825e-01</leafValues></_>
        <_>
          <internalNodes>
            0 -1 25 -5.9097737539559603e-04</internalNodes>
          <leafValues>
            6.3743591308593750e-01 -7.3883205652236938e-01</leafValues></_></weakClassifiers></_>
    <!-- stage 6 -->
    <_>
      <maxWeakCount>3</maxWeakCount>
      <stageThreshold>-1.0592647790908813e+00</stageThreshold>
      <weakClassifiers>
        <_>
          <internalNodes>
            0 -1 14 4.9324423074722290e-02</internalNodes>
          <leafValues>
            -8.3848738670349121e-01 1.</leafValues></_>
        <_>
          <internalNodes>
            0 -1 28 -1.0001792106777430e-03</internalNodes>
          <leafValues>
            8.2952964305877686e-01 -7.8033024072647095e-01</leafValues></_>
        <_>
          <internalNodes>
            0 -1 18 -1.7742174863815308e-01</internalNodes>
          <leafValues>
            5.5955284833908081e-01 -9.8454856872558594e-01</leafValues></_></weakClassifiers></_>
    <!-- stage 7 -->
    <_>
      <maxWeakCount>3</maxWeakCount>
      <stageThreshold>-8.4112733602523804e-01</stageThreshold>
      <weakClassifiers>
        <_>
          <internalNodes>
            0 -1 5 9.1000925749540329e-03</internalNodes>
          <leafValues>
            -9.5270270109176636e-01 1.</leafValues></_>
        <_>
          <internalNodes>
            0 -1 0 -4.3769253534264863e-04</internalNodes>
          <leafValues>
            1. -8.8842463493347168e-01</leafValues></_>
        <_>
          <internalNodes>
            0 -1 19 -3.0230067204684019e-04</internalNodes>
          <leafValues>
            -7.9923725128173828e-01 1.</leafValues></_></weakClassifiers></_></stages>
  <features>
    <_>
      <rects>
        <_>
          0 32 18 2 -1.</_>
        <_>
          0 33 18 1 2.</_></rects>
      <tilted>0</tilted></_>
    <_>
      <rects>
        <_>
          1 1 26 24 -1.</_>
        <_>
          14 1 13 24 2.</_></rects>
      <tilted>0</tilted></_>
    <_>
      <rects>
        <_>
          1 5 8 18 -1.</_>
        <_>
          5 5 4 18 2.</_></rects>
      <tilted>0</tilted></_>
    <_>
      <rects>
        <_>
          1 6 8 16 -1.</_>
        <_>
          5 6 4 16 2.</_></rects>
      <tilted>0</tilted></_>
    <_>
      <rects>
        <_>
          1 14 28 26 -1.</_>
        <_>
          1 27 28 13 2.</_></rects>
      <tilted>0</tilted></_>
    <_>
      <rects>
        <_>
          2 6 6 14 -1.</_>
        <_>
          5 6 3 14 2.</_></rects>
      <tilted>0</tilted></_>
    <_>
      <rects>
        <_>
          2 6 16 12 -1.</_>
        <_>
          2 6 8 6 2.</_>
        <_>
          10 12 8 6 2.</_></rects>
      <tilted>0</tilted></_>
    <_>
      <rects>
        <_>
          3 30 8 4 -1.</_>
        <_>
          3 32 8 2 2.</_></rects>
      <tilted>0</tilted></_>
    <_>
      <rects>
        <_>
          4 11 26 28 -1.</_>
        <_>
          4 25 26 14 2.</_></rects>
      <tilted>0</tilted></_>
    <_>
      <rects>
        <_>
          5 22 12 14 -1.</_>
        <_>
          9 22 4 14 3.</_></rects>
      <tilted>0</tilted></_>
    <_>
      <rects>
        <_>
          6 24 34 16 -1.</_>
        <_>
          6 32 34 8 2.</_></rects>
      <tilted>0</tilted></_>
    <_>
      <rects>
        <_>
          6 25 32 14 -1.</_>
        <_>
          6 32 32 7 2.</_></rects>
      <tilted>0</tilted></_>
    <_>
      <rects>
        <_>
          11 9 15 21 -1.</_>
        <_>
          16 9 5 21 3.</_></rects>
      <tilted>0</tilted></_>
    <_>
      <rects>
        <_>
          13 32 21 6 -1.</_>
        <_>
          13 35 21 3 2.</_></rects>
      <tilted>0</tilted></_>
    <_>
      <rects>
        <_>
          14 14 21 11 -1.</_>
        <_>
          21 14 7 11 3.</_></rects>
      <tilted>0</tilted></_>
    <_>
      <rects>
        <_>
          14 22 12 14 -1.</_>
        <_>
          18 22 4 14 3.</_></rects>
      <tilted>0</tilted></_>
    <_>
      <rects>
        <_>
          17 14 9 12 -1.</_>
        <_>
          20 14 3 12 3.</_></rects>
      <tilted>0</tilted></_>
    <_>
      <rects>
        <_>
          18 5 15 31 -1.</_>
        <_>
          23 5 5 31 3.</_></rects>
      <tilted>0</tilted></_>
    <_>
      <rects>
        <_>
          18 6 17 34 -1.</_>
        <_>
          18 23 17 17 2.</_></rects>
      <tilted>0</tilted></_>
    <_>
      <rects>
        <_>
          18 23 6 2 -1.</_>
        <_>
          20 23 2 2 3.</_></rects>
      <tilted>0</tilted></_>
    <_>
      <rects>
        <_>
          19 2 9 36 -1.</_>
        <_>
          22 2 3 36 3.</_></rects>
      <tilted>0</tilted></_>
    <_>
      <rects>
        <_>
          20 28 8 2 -1.</_>
        <_>
          20 29 8 1 2.</_></rects>
      <tilted>0</tilted></_>
    <_>
      <rects>
        <_>
          21 1 14 8 -1.</_>
        <_>
          21 5 14 4 2.</_></rects>
      <tilted>0</tilted></_>
    <_>
      <rects>
        <_>
          22 4 18 29 -1.</_>
        <_>
          31 4 9 29 2.</_></rects>
      <tilted>0</tilted></_>
    <_>
      <rects>
        <_>
          23 4 16 26 -1.</_>
        <_>
          31 4 8 26 2.</_></rects>
      <tilted>0</tilted></_>
    <_>
      <rects>
        <_>
          25 0 4 11 -1.</_>
        <_>
          27 0 2 11 2.</_></rects>
      <tilted>0</tilted></_>
    <_>
      <rects>
        <_>
          26 2 14 14 -1.</_>
        <_>
          33 2 7 14 2.</_></rects>
      <tilted>0</tilted></_>
    <_>
      <rects>
        <_>
          30 22 10 11 -1.</_>
        <_>
          35 22 5 11 2.</_></rects>
      <tilted>0</tilted></_>
    <_>
      <rects>
        <_>
          31 14 8 1 -1.</_>
        <_>
          35 14 4 1 2.</_></rects>
      <tilted>0</tilted></_>
    <_>
      <rects>
        <_>
          31 26 8 12 -1.</_>
        <_>
          31 26 4 6 2.</_>
        <_>
          35 32 4 6 2.</_></rects>
      <tilted>0</tilted></_>
    <_>
      <rects>
        <_>
          37 2 3 36 -1.</_>
        <_>
          37 20 3 18 2.</_></rects>
      <tilted>0</tilted></_></features></cascade>
</opencv_storage>
